
\data\
ngram 1=48172
ngram 2=128895

\1-grams:
-6.800905	!
-6.800905	"
-6.800905	#169
-6.800905	#187
-6.800905	#768
-6.800905	#769
-6.800905	#777
-6.800905	#803
-6.800905	#8211
-6.800905	#8216
-6.800905	#8217
-6.800905	#8220
-6.800905	#8221
-6.800905	#8230
-6.800905	#9642
-6.800905	$n
-6.800905	$p
-6.800905	$t
-6.800905	&amp
-6.800905	'
-6.800905	(
-6.800905	(làm
-6.800905	(mà)
-6.800905	(phäi)
-6.800905	)
-6.800905	*
-6.800905	*20
-6.800905	*26%
-6.800905	*3
-6.800905	*An
-6.800905	*B¡c
-6.800905	*BÕc
-6.800905	*Bà
-6.800905	*Bãi
-6.800905	*Cho
-6.800905	*Chuy¬n
-6.800905	*Cháy
-6.800905	*Chü
-6.800905	*C¤m
-6.800905	*Cà
-6.800905	*Còn
-6.800905	*Công
-6.800905	*Dñ
-6.800905	*Giäi
-6.800905	*H°
-6.800905	*H½n
-6.800905	*Hà
-6.800905	*Häi
-6.800905	*Khai
-6.800905	*Khánh
-6.800905	*K©t
-6.800905	*Lßþng
-6.800905	*Lâm
-6.800905	*Mµt
-6.800905	*M·
-6.800905	*Mßa
-6.800905	*Mô
-6.800905	*Nam
-6.800905	*Ngh®
-6.800905	*Ngß
-6.800905	*Ngß¶i
-6.800905	*Nhi«u
-6.800905	*Nâng
-6.800905	*Phân
-6.800905	*Quy
-6.800905	*Quäng
-6.800905	*Sacombank
-6.800905	*S¡p
-6.800905	*S¨
-6.800905	*TP
-6.800905	*Thu
-6.800905	*Thành
-6.800905	*Thác
-6.800905	*Thäo
-6.800905	*Thông
-6.800905	*Tr°ng
-6.800905	*Träi
-6.800905	*Trë
-6.800905	*Tìm
-6.800905	*Xe
-6.800905	*Xoá
-6.800905	*Xây
-6.800905	*Xä
-6.800905	*an
-6.800905	*b¡c
-6.800905	*bÕc
-6.800905	*bà
-6.800905	*bãi
-6.800905	*cho
-6.800905	*chuy¬n
-6.800905	*cháy
-6.800905	*chü
-6.800905	*c¤m
-6.800905	*cà
-6.800905	*còn
-6.800905	*công
-6.800905	*dñ
-6.800905	*giäi
-6.800905	*h°
-6.800905	*h½n
-6.800905	*hà
-6.800905	*häi
-6.800905	*khai
-6.800905	*khánh
-6.800905	*k©t
-6.800905	*lßþng
-6.800905	*lâm
-6.800905	*mµt
-6.800905	*m·
-6.800905	*mßa
-6.800905	*mô
-6.800905	*nam
-6.800905	*ngh®
-6.800905	*ngß
-6.800905	*ngß¶i
-6.800905	*nhi«u
-6.800905	*nâng
-6.800905	*phân
-6.800905	*quy
-6.800905	*quäng
-6.800905	*sacombank
-6.800905	*s¡p
-6.800905	*s¨
-6.800905	*thu
-6.800905	*thành
-6.800905	*thác
-6.800905	*thäo
-6.800905	*thông
-6.800905	*tp
-6.800905	*tr°ng
-6.800905	*träi
-6.800905	*trë
-6.800905	*tìm
-6.800905	*xe
-6.800905	*xoá
-6.800905	*xây
-6.800905	*xä
-6.800905	*Ðßa
-6.800905	*Ðß¶ng
-6.800905	*Ðà
-6.800905	*Ðäm
-6.800905	*ðßa
-6.800905	*ðß¶ng
-6.800905	*ðà
-6.800905	*ðäm
-6.800905	+
-6.800905	+2,2
-6.800905	+65
-6.800905	,
-6.800905	-
-6.800905	-11h30
-6.800905	-16h30
-6.800905	-17h
-6.800905	-17h30
-6.800905	-18h
-6.800905	-19h30
-6.800905	-20h
-6.800905	-6h
-6.800905	-726
-6.800905	-80
-6.800905	-846
-6.800905	-9h
-6.800905	.
-6.800905	...ðßþc
-6.800905	.3
-6.800905	/
-6.800905	0
-6.800905	0%
-6.800905	0+150
-6.800905	0,02
-6.800905	0,03
-6.800905	0,05
-6.800905	0,08
-6.800905	0,1
-6.800905	0,1-0,4
-6.800905	0,145-0,346
-6.800905	0,15
-6.800905	0,17
-6.800905	0,18
-6.800905	0,2
-6.800905	0,2%
-6.800905	0,2-0,5
-6.800905	0,22
-6.800905	0,25
-6.800905	0,26
-6.800905	0,3
-6.800905	0,3-0,5
-6.800905	0,34
-6.800905	0,35
-6.800905	0,36
-6.800905	0,4
-6.800905	0,4%
-6.800905	0,40
-6.800905	0,42
-6.800905	0,43
-6.800905	0,5
-6.800905	0,5%
-6.800905	0,5-0,7
-6.800905	0,5-1
-6.800905	0,5-3
-6.800905	0,50
-6.800905	0,52
-6.800905	0,52m
-6.800905	0,55
-6.800905	0,57m
-6.800905	0,6
-6.800905	0,6-1,2
-6.800905	0,62
-6.800905	0,7
-6.800905	0,77
-6.800905	0,8
-6.800905	0,81m
-6.800905	0,83
-6.800905	0,85
-6.800905	0,85%
-6.800905	0,89
-6.800905	0,9
-6.800905	0,92
-6.800905	0,94
-6.800905	00
-6.800905	0082
-6.800905	01
-6.800905	02
-6.800905	026A
-6.800905	026a
-6.800905	03
-6.800905	0303
-6.800905	04
-6.800905	04.9740542
-6.800905	043
-6.800905	05
-6.800905	0575
-6.800905	06
-6.800905	07
-6.800905	076
-6.800905	08
-6.800905	08-8346405
-6.800905	0888
-6.800905	09
-6.800905	090
-6.800905	090.888.888
-6.800905	091
-6.800905	091.19999
-6.800905	09123456
-6.800905	0913
-6.800905	09134545
-6.800905	0h
-6.800905	0h15
-6.800905	0h40
-6.800905	1
-6.800905	1%
-6.800905	1,0
-6.800905	1,02
-6.800905	1,05
-6.800905	1,1
-6.800905	1,19
-6.800905	1,2
-6.800905	1,21
-6.800905	1,295
-6.800905	1,3
-6.800905	1,3%
-6.800905	1,3-1,4
-6.800905	1,32
-6.800905	1,35
-6.800905	1,4
-6.800905	1,4%
-6.800905	1,4-2
-6.800905	1,435
-6.800905	1,4MW
-6.800905	1,4mw
-6.800905	1,5
-6.800905	1,5-2
-6.800905	1,5-2,5
-6.800905	1,50
-6.800905	1,53
-6.800905	1,6
-6.800905	1,61
-6.800905	1,7
-6.800905	1,7-3,7
-6.800905	1,71
-6.800905	1,77%
-6.800905	1,78
-6.800905	1,8
-6.800905	1,8-2
-6.800905	1,81
-6.800905	1,9
-6.800905	1,92
-6.800905	1,98
-6.800905	1-
-6.800905	1-1,4
-6.800905	1-1,5
-6.800905	1-13
-6.800905	1-16
-6.800905	1-18
-6.800905	1-2
-6.800905	1-2%
-6.800905	1-2di®n
-6.800905	1-3
-6.800905	1-5
-6.800905	1-7
-6.800905	1.000
-6.800905	1.000-1.500
-6.800905	1.000-4.000
-6.800905	1.000.000
-6.800905	1.001
-6.800905	1.010
-6.800905	1.043
-6.800905	1.062
-6.800905	1.076m
-6.800905	1.085
-6.800905	1.100
-6.800905	1.103
-6.800905	1.129
-6.800905	1.130
-6.800905	1.150
-6.800905	1.160
-6.800905	1.164
-6.800905	1.170
-6.800905	1.177
-6.800905	1.190
-6.800905	1.195
-6.800905	1.196.820
-6.800905	1.200
-6.800905	1.200-3.500
-6.800905	1.220
-6.800905	1.228
-6.800905	1.230
-6.800905	1.246
-6.800905	1.260
-6.800905	1.280
-6.800905	1.287
-6.800905	1.288
-6.800905	1.290
-6.800905	1.300
-6.800905	1.318
-6.800905	1.340
-6.800905	1.350
-6.800905	1.370
-6.800905	1.379
-6.800905	1.400
-6.800905	1.400-1.700
-6.800905	1.435
-6.800905	1.440.000
-6.800905	1.488
-6.800905	1.500
-6.800905	1.500-2.000
-6.800905	1.500.000-3.000.000
-6.800905	1.509
-6.800905	1.510
-6.800905	1.520
-6.800905	1.530
-6.800905	1.553
-6.800905	1.560
-6.800905	1.570
-6.800905	1.590
-6.800905	1.600
-6.800905	1.640
-6.800905	1.641
-6.800905	1.649
-6.800905	1.650
-6.800905	1.680
-6.800905	1.692
-6.800905	1.700
-6.800905	1.740
-6.800905	1.752
-6.800905	1.770
-6.800905	1.800
-6.800905	1.814
-6.800905	1.818
-6.800905	1.824
-6.800905	1.840
-6.800905	1.845
-6.800905	1.850
-6.800905	1.862
-6.800905	1.900
-6.800905	1.920
-6.800905	1.928
-6.800905	1.930
-6.800905	1.950
-6.800905	1.950.000
-6.800905	1.970
-6.800905	1.970-2.400
-6.800905	1.971
-6.800905	1.975
-6.800905	10
-6.800905	10%
-6.800905	10,11
-6.800905	10,4%
-6.800905	10,5
-6.800905	10,8
-6.800905	10-
-6.800905	10-10
-6.800905	10-11
-6.800905	10-12
-6.800905	10-12%
-6.800905	10-12h
-6.800905	10-15
-6.800905	10-15%
-6.800905	10-20
-6.800905	10-20%
-6.800905	10-25%
-6.800905	10-30
-6.800905	10-50
-6.800905	10.000
-6.800905	10.000-12.000
-6.800905	10.000-20.000
-6.800905	10.100
-6.800905	10.220
-6.800905	10.300
-6.800905	10.350
-6.800905	10.480
-6.800905	10.490
-6.800905	10.540
-6.800905	10.600
-6.800905	10.800
-6.800905	100
-6.800905	100%
-6.800905	100-140
-6.800905	100-150
-6.800905	100-170
-6.800905	100-200
-6.800905	100.000
-6.800905	100.000-150.000
-6.800905	101,90
-6.800905	102
-6.800905	103
-6.800905	104
-6.800905	105
-6.800905	105%
-6.800905	1055
-6.800905	106
-6.800905	106,9
-6.800905	107
-6.800905	107,5-108,5
-6.800905	107,9
-6.800905	108
-6.800905	108,4
-6.800905	108,5
-6.800905	108,7
-6.800905	108-109
-6.800905	108.000
-6.800905	1080
-6.800905	1088
-6.800905	109
-6.800905	109,4
-6.800905	109,5-110,5
-6.800905	109,9
-6.800905	109.300
-6.800905	109.500
-6.800905	1098
-6.800905	10A1
-6.800905	10a1
-6.800905	10h
-6.800905	10h20
-6.800905	10h30
-6.800905	11
-6.800905	11%
-6.800905	11+335
-6.800905	11,5
-6.800905	11,60
-6.800905	11-12
-6.800905	11-13
-6.800905	11-13h
-6.800905	11-14
-6.800905	11-27%
-6.800905	11.000
-6.800905	11.100
-6.800905	11.500
-6.800905	11.619
-6.800905	110
-6.800905	110,5-
-6.800905	110.000
-6.800905	111
-6.800905	111,5
-6.800905	111,8
-6.800905	112
-6.800905	112,5
-6.800905	112,65
-6.800905	113
-6.800905	113,5
-6.800905	113.900
-6.800905	114
-6.800905	115
-6.800905	115,8
-6.800905	115.540
-6.800905	115.600
-6.800905	1155
-6.800905	116
-6.800905	116-117
-6.800905	117
-6.800905	117-119
-6.800905	118
-6.800905	118-119
-6.800905	119
-6.800905	119.000
-6.800905	119.300
-6.800905	11A
-6.800905	11E
-6.800905	11a
-6.800905	11e
-6.800905	11h
-6.800905	11h25
-6.800905	11h26
-6.800905	11h30
-6.800905	11h45
-6.800905	12
-6.800905	12%
-6.800905	12,110
-6.800905	12,25
-6.800905	12,5
-6.800905	12,5%
-6.800905	12,7%
-6.800905	12,8%
-6.800905	12-14
-6.800905	12-15
-6.800905	12-16
-6.800905	12-18
-6.800905	12-30
-6.800905	12.000
-6.800905	12.000-15.000
-6.800905	12.3
-6.800905	12.500
-6.800905	12.800
-6.800905	12.820
-6.800905	120
-6.800905	120%
-6.800905	120.000
-6.800905	121
-6.800905	1212
-6.800905	1219
-6.800905	122
-6.800905	122.100
-6.800905	122A
-6.800905	122a
-6.800905	123
-6.800905	1234
-6.800905	124
-6.800905	124.000
-6.800905	125
-6.800905	126
-6.800905	127
-6.800905	128
-6.800905	129
-6.800905	12A2
-6.800905	12B
-6.800905	12C5
-6.800905	12a2
-6.800905	12b
-6.800905	12c5
-6.800905	12h
-6.800905	12h30
-6.800905	12h45
-6.800905	12h5
-6.800905	13
-6.800905	13%
-6.800905	13,1
-6.800905	13,2
-6.800905	13,26
-6.800905	13,3
-6.800905	13,5
-6.800905	13,65
-6.800905	13-14
-6.800905	13-15
-6.800905	13.000
-6.800905	13.150
-6.800905	13.200
-6.800905	13.300
-6.800905	130
-6.800905	130,8
-6.800905	130-140
-6.800905	130-150
-6.800905	130.000
-6.800905	131
-6.800905	132
-6.800905	133
-6.800905	133.800
-6.800905	134
-6.800905	134.000
-6.800905	135
-6.800905	135.000
-6.800905	136
-6.800905	137
-6.800905	138
-6.800905	139
-6.800905	139-169
-6.800905	13h
-6.800905	13h30
-6.800905	13h48
-6.800905	13x19
-6.800905	14
-6.800905	14%
-6.800905	14,08
-6.800905	14,22%
-6.800905	14,29%
-6.800905	14,4
-6.800905	14,5
-6.800905	14,5x20,5
-6.800905	14,6
-6.800905	14-15
-6.800905	14-20
-6.800905	14.000
-6.800905	14.135
-6.800905	14.400
-6.800905	14.580
-6.800905	14.820
-6.800905	14.850
-6.800905	140
-6.800905	140.000
-6.800905	141
-6.800905	141,5
-6.800905	142
-6.800905	142.000
-6.800905	144
-6.800905	145
-6.800905	145.000
-6.800905	146
-6.800905	147
-6.800905	1479
-6.800905	148
-6.800905	149
-6.800905	14B
-6.800905	14MW
-6.800905	14b
-6.800905	14h
-6.800905	14h30
-6.800905	14mw
-6.800905	15
-6.800905	15%
-6.800905	15,3%
-6.800905	15,5%
-6.800905	15,6%
-6.800905	15,7-16,7
-6.800905	15-16
-6.800905	15-17
-6.800905	15-17h
-6.800905	15-18
-6.800905	15-19
-6.800905	15-20
-6.800905	15-30
-6.800905	15-45
-6.800905	15.000
-6.800905	15.000-20.000
-6.800905	15.204
-6.800905	15.270
-6.800905	15.280
-6.800905	15.800
-6.800905	150
-6.800905	150-180
-6.800905	150-200
-6.800905	150-250
-6.800905	150-300
-6.800905	150.000
-6.800905	150.000-200.000
-6.800905	152
-6.800905	153
-6.800905	153,5
-6.800905	1533
-6.800905	153A
-6.800905	153a
-6.800905	154
-6.800905	155
-6.800905	155,1
-6.800905	156
-6.800905	157
-6.800905	157.600
-6.800905	158
-6.800905	159
-6.800905	159+300
-6.800905	15B
-6.800905	15b
-6.800905	15h
-6.800905	15h20
-6.800905	15h30
-6.800905	15h45
-6.800905	16
-6.800905	16%
-6.800905	16,17
-6.800905	16,34
-6.800905	16,5
-6.800905	16,5%
-6.800905	16,7%
-6.800905	16,8%
-6.800905	16-17
-6.800905	16-18
-6.800905	16-18h
-6.800905	16-19h
-6.800905	16-30
-6.800905	16.000
-6.800905	16.500
-6.800905	160
-6.800905	160%
-6.800905	160.000
-6.800905	161
-6.800905	162
-6.800905	162.000
-6.800905	163
-6.800905	164
-6.800905	165
-6.800905	166
-6.800905	167
-6.800905	168
-6.800905	169
-6.800905	16h
-6.800905	16h15
-6.800905	16h30
-6.800905	16h30-17h30
-6.800905	16h40
-6.800905	16h46
-6.800905	17
-6.800905	17,2
-6.800905	17,3%
-6.800905	17,4
-6.800905	17,6
-6.800905	17,6%
-6.800905	17,7%
-6.800905	17,8
-6.800905	17-18
-6.800905	17-19
-6.800905	17-20
-6.800905	17-22
-6.800905	17-25
-6.800905	17-40%
-6.800905	17.000
-6.800905	17.390
-6.800905	17.500
-6.800905	170
-6.800905	170.000
-6.800905	171
-6.800905	172
-6.800905	174
-6.800905	175
-6.800905	176
-6.800905	177
-6.800905	177.000
-6.800905	178
-6.800905	178%
-6.800905	1780
-6.800905	179
-6.800905	17h
-6.800905	17h10
-6.800905	17h25
-6.800905	17h30
-6.800905	17h38
-6.800905	17h40
-6.800905	18
-6.800905	18%
-6.800905	18,0-19,0
-6.800905	18,1
-6.800905	18,1-19,1
-6.800905	18,4
-6.800905	18,5
-6.800905	18,52
-6.800905	18,6
-6.800905	18,7%
-6.800905	18-20
-6.800905	18-20h
-6.800905	18-40
-6.800905	18.000
-6.800905	18.000-19.000
-6.800905	18.200
-6.800905	18.640
-6.800905	18.850
-6.800905	180
-6.800905	180-200
-6.800905	180.000
-6.800905	180.000-181.000
-6.800905	1804
-6.800905	181
-6.800905	1813
-6.800905	182
-6.800905	1821
-6.800905	1822-1888
-6.800905	1823
-6.800905	1835
-6.800905	184.620
-6.800905	185
-6.800905	186
-6.800905	187
-6.800905	1871
-6.800905	188
-6.800905	1886
-6.800905	1887
-6.800905	189
-6.800905	1894
-6.800905	1895
-6.800905	18A
-6.800905	18a
-6.800905	18h
-6.800905	18h15
-6.800905	18h20
-6.800905	18h30
-6.800905	18h35
-6.800905	18h45
-6.800905	19
-6.800905	19%
-6.800905	19,1
-6.800905	19,2%
-6.800905	19,3%
-6.800905	19,4
-6.800905	19,63
-6.800905	19-20
-6.800905	19-21h30
-6.800905	19-24
-6.800905	19.000
-6.800905	19.640
-6.800905	19.800
-6.800905	190
-6.800905	190-200
-6.800905	190-240
-6.800905	190.000
-6.800905	1900
-6.800905	1902
-6.800905	1902-1942
-6.800905	1906-1
-6.800905	191
-6.800905	191%
-6.800905	1910-1915
-6.800905	1917
-6.800905	1919
-6.800905	192
-6.800905	1925
-6.800905	193
-6.800905	1930
-6.800905	1930-1931
-6.800905	1936
-6.800905	1937
-6.800905	1938
-6.800905	1939
-6.800905	194
-6.800905	1942
-6.800905	1944
-6.800905	1945
-6.800905	1946
-6.800905	1946-1951
-6.800905	1948
-6.800905	1950
-6.800905	1950-2002
-6.800905	1951
-6.800905	1952
-6.800905	1953
-6.800905	1954-1970
-6.800905	1955
-6.800905	1956
-6.800905	1957
-6.800905	1958
-6.800905	1959
-6.800905	196
-6.800905	196.500
-6.800905	196.600
-6.800905	1960
-6.800905	1961
-6.800905	1962
-6.800905	1963
-6.800905	1965-1972
-6.800905	1966
-6.800905	1967
-6.800905	1968
-6.800905	1969
-6.800905	197
-6.800905	1970
-6.800905	1971
-6.800905	1973
-6.800905	1974
-6.800905	1975
-6.800905	1976
-6.800905	1977
-6.800905	1978
-6.800905	1979
-6.800905	198
-6.800905	198.000
-6.800905	1980
-6.800905	1981
-6.800905	1982
-6.800905	1983
-6.800905	1984
-6.800905	1985
-6.800905	1986
-6.800905	1989
-6.800905	1989-2001
-6.800905	199
-6.800905	1990
-6.800905	1991
-6.800905	1991-1993
-6.800905	1992
-6.800905	1993
-6.800905	1993-1996
-6.800905	1994
-6.800905	1994-2003
-6.800905	1995
-6.800905	1995-2000
-6.800905	1996
-6.800905	1997
-6.800905	1997-1998
-6.800905	1997-2002
-6.800905	1997-2003
-6.800905	1998
-6.800905	1998-1999
-6.800905	1998-6
-6.800905	1999
-6.800905	1999-2000
-6.800905	19h
-6.800905	19h15
-6.800905	19h30
-6.800905	1A
-6.800905	1AB
-6.800905	1USD
-6.800905	1a
-6.800905	1ab
-6.800905	1bis
-6.800905	1h
-6.800905	1h20
-6.800905	1h30
-6.800905	1h55
-6.800905	1m2
-6.800905	1ppb
-6.800905	1usd
-6.800905	1v×a
-6.800905	1x8
-6.800905	1ßþt
-6.800905	2
-6.800905	2%
-6.800905	2%-3%
-6.800905	2,03
-6.800905	2,06
-6.800905	2,07
-6.800905	2,1
-6.800905	2,10
-6.800905	2,16
-6.800905	2,2
-6.800905	2,21
-6.800905	2,24
-6.800905	2,3
-6.800905	2,3-2,76
-6.800905	2,31
-6.800905	2,32
-6.800905	2,33
-6.800905	2,34
-6.800905	2,36
-6.800905	2,37
-6.800905	2,4
-6.800905	2,4%
-6.800905	2,43
-6.800905	2,45
-6.800905	2,5
-6.800905	2,5%
-6.800905	2,5-3,5
-6.800905	2,56
-6.800905	2,57
-6.800905	2,6
-6.800905	2,61
-6.800905	2,62
-6.800905	2,63
-6.800905	2,65
-6.800905	2,66
-6.800905	2,69
-6.800905	2,7
-6.800905	2,72
-6.800905	2,74
-6.800905	2,76
-6.800905	2,77
-6.800905	2,84
-6.800905	2,9%
-6.800905	2-
-6.800905	2-10
-6.800905	2-2,5
-6.800905	2-3
-6.800905	2-3%
-6.800905	2-4
-6.800905	2-4-6
-6.800905	2-5
-6.800905	2-5%
-6.800905	2-6
-6.800905	2.000
-6.800905	2.000-2.100
-6.800905	2.000-3.000
-6.800905	2.010
-6.800905	2.114
-6.800905	2.160
-6.800905	2.180
-6.800905	2.200
-6.800905	2.260
-6.800905	2.290
-6.800905	2.300
-6.800905	2.326
-6.800905	2.370
-6.800905	2.400
-6.800905	2.470
-6.800905	2.500
-6.800905	2.520
-6.800905	2.545
-6.800905	2.550
-6.800905	2.553
-6.800905	2.560
-6.800905	2.600
-6.800905	2.640
-6.800905	2.650-2.870
-6.800905	2.700
-6.800905	2.740
-6.800905	2.800
-6.800905	2.815
-6.800905	2.825
-6.800905	2.850
-6.800905	2.860
-6.800905	2.893
-6.800905	2.900
-6.800905	20
-6.800905	20%
-6.800905	20%-60%
-6.800905	20,2
-6.800905	20,3-21,3
-6.800905	20,4%
-6.800905	20,5
-6.800905	20,6
-6.800905	20,6%
-6.800905	20,7
-6.800905	20,8
-6.800905	20,9
-6.800905	20-21
-6.800905	20-23
-6.800905	20-24
-6.800905	20-24,8
-6.800905	20-25
-6.800905	20-25%
-6.800905	20-30
-6.800905	20-30%
-6.800905	20-31
-6.800905	20-40%
-6.800905	20-50
-6.800905	20-80%
-6.800905	20.000
-6.800905	20.000-25.000
-6.800905	20.000-30.000
-6.800905	20.342.000
-6.800905	200
-6.800905	200%
-6.800905	200-300
-6.800905	200-350
-6.800905	200-400
-6.800905	200.000
-6.800905	200.000-300.000
-6.800905	200.000-500.000
-6.800905	200.000.000
-6.800905	2000
-6.800905	2000-2001
-6.800905	2001
-6.800905	2001-2001
-6.800905	2001-2002
-6.800905	2001-2005
-6.800905	2001-2010
-6.800905	2002
-6.800905	2002-2003
-6.800905	2002-2005
-6.800905	2002-2006
-6.800905	2002-2007
-6.800905	2002-2008
-6.800905	2003
-6.800905	2003-2005
-6.800905	2003-2010
-6.800905	2004
-6.800905	2004-2005
-6.800905	2005
-6.800905	2006
-6.800905	2006-2010
-6.800905	2007
-6.800905	2007-2008
-6.800905	2008
-6.800905	2009
-6.800905	201-1.000
-6.800905	2010
-6.800905	2011-2015
-6.800905	2012
-6.800905	2015
-6.800905	2020
-6.800905	203
-6.800905	205
-6.800905	205-215
-6.800905	2050
-6.800905	206
-6.800905	208
-6.800905	209
-6.800905	20h
-6.800905	20h20
-6.800905	20h30
-6.800905	21
-6.800905	21%
-6.800905	21,3
-6.800905	21,4
-6.800905	21,4%
-6.800905	21,46%
-6.800905	21,5
-6.800905	21,5%
-6.800905	21,6
-6.800905	21,8
-6.800905	21-23
-6.800905	21-24
-6.800905	21.000
-6.800905	21.200
-6.800905	210
-6.800905	210-215
-6.800905	210.000
-6.800905	213
-6.800905	214
-6.800905	215
-6.800905	215.000
-6.800905	216
-6.800905	217
-6.800905	218
-6.800905	219
-6.800905	21h
-6.800905	21h30
-6.800905	22
-6.800905	22%
-6.800905	22,5
-6.800905	22,6
-6.800905	22,7
-6.800905	22-23
-6.800905	22-24
-6.800905	22-25
-6.800905	22.000
-6.800905	22.230
-6.800905	22.450
-6.800905	22.540
-6.800905	22.800
-6.800905	220
-6.800905	220.000
-6.800905	220V
-6.800905	220v
-6.800905	221
-6.800905	222
-6.800905	224
-6.800905	225
-6.800905	226
-6.800905	227
-6.800905	228
-6.800905	229
-6.800905	22A
-6.800905	22KV
-6.800905	22a
-6.800905	22h
-6.800905	22h10
-6.800905	22h20
-6.800905	22h30
-6.800905	22h45
-6.800905	22kv
-6.800905	23
-6.800905	23%
-6.800905	23,5
-6.800905	23,5%
-6.800905	23,8
-6.800905	23,8%
-6.800905	23-24
-6.800905	23.000
-6.800905	23.230
-6.800905	23.500
-6.800905	230
-6.800905	230.000
-6.800905	231
-6.800905	232
-6.800905	233A
-6.800905	233a
-6.800905	234
-6.800905	235
-6.800905	235.000
-6.800905	2359
-6.800905	23h
-6.800905	23h30
-6.800905	24
-6.800905	24%
-6.800905	24,4%
-6.800905	24,8
-6.800905	24-25
-6.800905	24-26
-6.800905	24-30
-6.800905	24-80
-6.800905	24.000
-6.800905	24.000-26.000
-6.800905	24.100
-6.800905	24.230
-6.800905	24.770
-6.800905	240
-6.800905	240.000
-6.800905	242
-6.800905	243
-6.800905	244
-6.800905	245
-6.800905	246
-6.800905	2472
-6.800905	248
-6.800905	24A
-6.800905	24a
-6.800905	24h
-6.800905	25
-6.800905	25%
-6.800905	25,2%
-6.800905	25,3%
-6.800905	25,4
-6.800905	25,4%
-6.800905	25-26
-6.800905	25-28
-6.800905	25-30
-6.800905	25.000
-6.800905	25.000-35.000
-6.800905	25.590
-6.800905	250
-6.800905	250-300
-6.800905	250-500
-6.800905	250.000
-6.800905	253
-6.800905	254
-6.800905	254%
-6.800905	255
-6.800905	256
-6.800905	256.000
-6.800905	257
-6.800905	25B
-6.800905	25b
-6.800905	26
-6.800905	26%
-6.800905	26,3%
-6.800905	26,5
-6.800905	26,5-27,5
-6.800905	26,6
-6.800905	26,6%
-6.800905	26-29
-6.800905	26-30
-6.800905	26-35
-6.800905	26.800
-6.800905	260
-6.800905	260.000
-6.800905	261
-6.800905	264
-6.800905	265
-6.800905	267
-6.800905	268.000
-6.800905	269
-6.800905	27
-6.800905	27%
-6.800905	27,3
-6.800905	27,4
-6.800905	27-28
-6.800905	27-29
-6.800905	27-35
-6.800905	27-53
-6.800905	27.000
-6.800905	270
-6.800905	270.000
-6.800905	2703
-6.800905	272
-6.800905	273
-6.800905	274
-6.800905	275.000
-6.800905	276
-6.800905	2778
-6.800905	279
-6.800905	28
-6.800905	28%
-6.800905	28-29
-6.800905	28-30
-6.800905	28.000
-6.800905	28.071
-6.800905	28.200
-6.800905	28.800
-6.800905	280
-6.800905	283
-6.800905	288
-6.800905	2880
-6.800905	29
-6.800905	29%
-6.800905	29,9
-6.800905	29-30
-6.800905	29-31
-6.800905	29.000
-6.800905	29.220
-6.800905	290
-6.800905	290.000
-6.800905	291
-6.800905	293
-6.800905	294
-6.800905	296
-6.800905	298
-6.800905	299
-6.800905	29A
-6.800905	29a
-6.800905	2A
-6.800905	2B
-6.800905	2a
-6.800905	2b
-6.800905	2h
-6.800905	2h10
-6.800905	2h30
-6.800905	2ml
-6.800905	2ppb
-6.800905	2x300MW
-6.800905	2x300mw
-6.800905	3
-6.800905	3%
-6.800905	3,02
-6.800905	3,2
-6.800905	3,27
-6.800905	3,3
-6.800905	3,4
-6.800905	3,4MW
-6.800905	3,4mw
-6.800905	3,5
-6.800905	3,5-4
-6.800905	3,54%
-6.800905	3,55
-6.800905	3,6
-6.800905	3,6MW
-6.800905	3,6mw
-6.800905	3,7
-6.800905	3,8
-6.800905	3,9
-6.800905	3,98
-6.800905	3-
-6.800905	3-11
-6.800905	3-2
-6.800905	3-3,5
-6.800905	3-4
-6.800905	3-4%
-6.800905	3-4h
-6.800905	3-5
-6.800905	3-5%
-6.800905	3-6
-6.800905	3-7
-6.800905	3.000
-6.800905	3.000-4.000
-6.800905	3.000-5.000
-6.800905	3.000-6.000
-6.800905	3.110
-6.800905	3.200
-6.800905	3.220
-6.800905	3.300
-6.800905	3.340
-6.800905	3.390
-6.800905	3.400
-6.800905	3.500
-6.800905	3.500-4.500
-6.800905	3.530
-6.800905	3.560
-6.800905	3.600
-6.800905	3.611.000
-6.800905	3.700
-6.800905	3.790
-6.800905	3.800
-6.800905	3.820
-6.800905	3.857
-6.800905	3.900
-6.800905	3.915
-6.800905	3.920
-6.800905	3.934
-6.800905	30
-6.800905	30%
-6.800905	30-31
-6.800905	30-40
-6.800905	30-40%
-6.800905	30-45
-6.800905	30-50
-6.800905	30-50%
-6.800905	30-70%
-6.800905	30.000
-6.800905	30.000-40.000
-6.800905	30.170
-6.800905	30.270
-6.800905	30.800
-6.800905	300
-6.800905	300-400
-6.800905	300-500
-6.800905	300-700
-6.800905	300-700.000
-6.800905	300.000
-6.800905	300.000-400.000
-6.800905	300.000-500.000
-6.800905	3000
-6.800905	303
-6.800905	304
-6.800905	305
-6.800905	306
-6.800905	307
-6.800905	309
-6.800905	30m3
-6.800905	30x30
-6.800905	31
-6.800905	31,5%
-6.800905	31-34
-6.800905	31-40
-6.800905	31-40%
-6.800905	31.000
-6.800905	31.000-37.000
-6.800905	31.540
-6.800905	310
-6.800905	312
-6.800905	313
-6.800905	314
-6.800905	315
-6.800905	315.000
-6.800905	319
-6.800905	32
-6.800905	32%
-6.800905	32,6%
-6.800905	32.400
-6.800905	32.660
-6.800905	320
-6.800905	320.000
-6.800905	323
-6.800905	324
-6.800905	324,85
-6.800905	324400
-6.800905	33
-6.800905	33%
-6.800905	33,7
-6.800905	33-49%
-6.800905	33.000
-6.800905	33.500
-6.800905	330
-6.800905	3310
-6.800905	334
-6.800905	335
-6.800905	336
-6.800905	339
-6.800905	33C
-6.800905	33c
-6.800905	34
-6.800905	34%
-6.800905	34,2%
-6.800905	34,5
-6.800905	34-37
-6.800905	34-38
-6.800905	34.037-36.634
-6.800905	340
-6.800905	340.000
-6.800905	341
-6.800905	341,9
-6.800905	342
-6.800905	343
-6.800905	344.000
-6.800905	347
-6.800905	349
-6.800905	35
-6.800905	35%
-6.800905	35,4%
-6.800905	35,6
-6.800905	35-36
-6.800905	35-40
-6.800905	35-40%
-6.800905	35-42%
-6.800905	35-52
-6.800905	35.000
-6.800905	350
-6.800905	350.000
-6.800905	351
-6.800905	354
-6.800905	357
-6.800905	36
-6.800905	36%
-6.800905	36,37
-6.800905	36,5
-6.800905	36-38
-6.800905	36.000
-6.800905	36.512
-6.800905	36.700
-6.800905	360
-6.800905	360.000
-6.800905	361
-6.800905	369
-6.800905	37
-6.800905	37%
-6.800905	37,5
-6.800905	37,9%
-6.800905	37-38
-6.800905	37-39
-6.800905	37.000-40.000
-6.800905	370
-6.800905	370-390
-6.800905	371
-6.800905	374
-6.800905	375
-6.800905	379
-6.800905	38
-6.800905	38%
-6.800905	38,5
-6.800905	38,5%
-6.800905	38-39
-6.800905	38-48
-6.800905	38.000
-6.800905	38.500
-6.800905	38.970
-6.800905	380
-6.800905	384
-6.800905	386
-6.800905	39
-6.800905	39%
-6.800905	39,6%
-6.800905	39-61
-6.800905	39.000
-6.800905	39.200
-6.800905	390
-6.800905	395
-6.800905	398
-6.800905	3C
-6.800905	3c
-6.800905	3h
-6.800905	3h30
-6.800905	4
-6.800905	4%
-6.800905	4,02
-6.800905	4,05
-6.800905	4,06
-6.800905	4,07
-6.800905	4,09
-6.800905	4,1
-6.800905	4,1-8
-6.800905	4,10
-6.800905	4,12
-6.800905	4,15
-6.800905	4,17
-6.800905	4,2
-6.800905	4,23
-6.800905	4,26
-6.800905	4,27
-6.800905	4,3
-6.800905	4,31
-6.800905	4,33
-6.800905	4,35
-6.800905	4,36
-6.800905	4,38
-6.800905	4,39
-6.800905	4,4
-6.800905	4,41
-6.800905	4,42
-6.800905	4,43
-6.800905	4,44
-6.800905	4,45
-6.800905	4,46
-6.800905	4,48
-6.800905	4,49
-6.800905	4,5
-6.800905	4,5%
-6.800905	4,5-5
-6.800905	4,51
-6.800905	4,55
-6.800905	4,58
-6.800905	4,59
-6.800905	4,6
-6.800905	4,63
-6.800905	4,65
-6.800905	4,67
-6.800905	4,68
-6.800905	4,684
-6.800905	4,7
-6.800905	4,70
-6.800905	4,72
-6.800905	4,73
-6.800905	4,75
-6.800905	4,76
-6.800905	4,78
-6.800905	4,8
-6.800905	4,82
-6.800905	4,88
-6.800905	4,9
-6.800905	4,9%
-6.800905	4,96
-6.800905	4-
-6.800905	4-2002
-6.800905	4-22
-6.800905	4-4,8
-6.800905	4-5
-6.800905	4-6
-6.800905	4-60
-6.800905	4-9
-6.800905	4.000
-6.800905	4.000-5.000
-6.800905	4.100
-6.800905	4.200
-6.800905	4.220
-6.800905	4.290
-6.800905	4.300
-6.800905	4.370
-6.800905	4.400
-6.800905	4.480
-6.800905	4.500
-6.800905	4.600
-6.800905	4.650
-6.800905	4.680
-6.800905	4.700
-6.800905	4.800
-6.800905	4.810
-6.800905	4.870
-6.800905	4.900
-6.800905	40
-6.800905	40%
-6.800905	40,5
-6.800905	40,7
-6.800905	40-45
-6.800905	40-50
-6.800905	40-50%
-6.800905	40-60%
-6.800905	40-80
-6.800905	40.000
-6.800905	40.000-50.000
-6.800905	40.000-55.000
-6.800905	40.000-60.000
-6.800905	40.800
-6.800905	400
-6.800905	400-500
-6.800905	400-700
-6.800905	400.000
-6.800905	4000
-6.800905	402
-6.800905	403
-6.800905	405
-6.800905	406
-6.800905	408
-6.800905	40x40
-6.800905	41
-6.800905	41%
-6.800905	41.000
-6.800905	41.780
-6.800905	41.800
-6.800905	41.880
-6.800905	410
-6.800905	413
-6.800905	414
-6.800905	415
-6.800905	416
-6.800905	417
-6.800905	42
-6.800905	42%
-6.800905	420
-6.800905	420-440
-6.800905	420.000
-6.800905	424
-6.800905	43
-6.800905	43%
-6.800905	43,3%
-6.800905	43,8
-6.800905	43.000
-6.800905	43.200
-6.800905	43.800
-6.800905	430
-6.800905	4335
-6.800905	435
-6.800905	44
-6.800905	44,24%
-6.800905	44,4%
-6.800905	440
-6.800905	441
-6.800905	444
-6.800905	445
-6.800905	447.000
-6.800905	448
-6.800905	45
-6.800905	45%
-6.800905	45,04
-6.800905	45,28%
-6.800905	45.000
-6.800905	45.500
-6.800905	450
-6.800905	450+500
-6.800905	450.000
-6.800905	453
-6.800905	456
-6.800905	4569
-6.800905	458
-6.800905	46
-6.800905	46.000
-6.800905	46.500
-6.800905	462
-6.800905	463
-6.800905	465
-6.800905	467
-6.800905	46D
-6.800905	46d
-6.800905	47
-6.800905	47%
-6.800905	47.000
-6.800905	47.150
-6.800905	470
-6.800905	478
-6.800905	48
-6.800905	48%
-6.800905	48,8%
-6.800905	48.000
-6.800905	48.500
-6.800905	483
-6.800905	49
-6.800905	49%
-6.800905	49,5
-6.800905	49,5%
-6.800905	49,6
-6.800905	49.000
-6.800905	491
-6.800905	495
-6.800905	4960
-6.800905	497
-6.800905	498
-6.800905	49A
-6.800905	49a
-6.800905	4F
-6.800905	4f
-6.800905	4h
-6.800905	4h30
-6.800905	4h45
-6.800905	5
-6.800905	5%
-6.800905	5%-10%
-6.800905	5,2
-6.800905	5,3
-6.800905	5,34
-6.800905	5,35
-6.800905	5,36
-6.800905	5,38
-6.800905	5,4
-6.800905	5,41
-6.800905	5,47
-6.800905	5,48
-6.800905	5,5
-6.800905	5,5-13,8%
-6.800905	5,53
-6.800905	5,56
-6.800905	5,6
-6.800905	5,7
-6.800905	5,8
-6.800905	5-
-6.800905	5-10
-6.800905	5-10%
-6.800905	5-15
-6.800905	5-15cm
-6.800905	5-6
-6.800905	5-6%
-6.800905	5-6h
-6.800905	5-7
-6.800905	5-8
-6.800905	5.000
-6.800905	5.000-10.000
-6.800905	5.000-6.000
-6.800905	5.000-7.000
-6.800905	5.000.000
-6.800905	5.035
-6.800905	5.110
-6.800905	5.200
-6.800905	5.300
-6.800905	5.400
-6.800905	5.700
-6.800905	5.800
-6.800905	5.920
-6.800905	50
-6.800905	50%
-6.800905	50,5
-6.800905	50-02S
-6.800905	50-02s
-6.800905	50-100
-6.800905	50-200
-6.800905	50-60
-6.800905	50-60%
-6.800905	50-70
-6.800905	50.000
-6.800905	50.000-200.000
-6.800905	50.000-500.000
-6.800905	50.000-60.000
-6.800905	500
-6.800905	500-1.000
-6.800905	500-600
-6.800905	500-700
-6.800905	500.000
-6.800905	500.000-2.000.000
-6.800905	502
-6.800905	504
-6.800905	505
-6.800905	507
-6.800905	50C
-6.800905	50c
-6.800905	50cc
-6.800905	50km
-6.800905	51
-6.800905	51%
-6.800905	51+382
-6.800905	51,8
-6.800905	51.200
-6.800905	51.390
-6.800905	51.620
-6.800905	51.846
-6.800905	510
-6.800905	5100
-6.800905	512
-6.800905	514
-6.800905	52
-6.800905	52,5%
-6.800905	52,7%
-6.800905	520
-6.800905	525
-6.800905	529
-6.800905	52km
-6.800905	53
-6.800905	53%
-6.800905	53+000
-6.800905	53,2%
-6.800905	53,5
-6.800905	53-65%
-6.800905	53.000
-6.800905	53.200
-6.800905	53.530
-6.800905	532
-6.800905	537
-6.800905	538
-6.800905	54
-6.800905	54.000
-6.800905	54.970
-6.800905	540
-6.800905	55
-6.800905	55%
-6.800905	55+500
-6.800905	55,67
-6.800905	55.000
-6.800905	550
-6.800905	5501
-6.800905	556
-6.800905	558
-6.800905	56
-6.800905	56,6%
-6.800905	56,7
-6.800905	56.960
-6.800905	560
-6.800905	560.000
-6.800905	563.550
-6.800905	565
-6.800905	567
-6.800905	568
-6.800905	57
-6.800905	57,9%
-6.800905	571
-6.800905	5742020
-6.800905	5742162
-6.800905	58
-6.800905	58,1%
-6.800905	58,28
-6.800905	58,7
-6.800905	58.390
-6.800905	58.650
-6.800905	58.731
-6.800905	580
-6.800905	581
-6.800905	59
-6.800905	59%
-6.800905	59,3-79%
-6.800905	59.510
-6.800905	594,93
-6.800905	5988
-6.800905	599
-6.800905	599,9
-6.800905	5A
-6.800905	5a
-6.800905	5h
-6.800905	5h15
-6.800905	5h30
-6.800905	5h35
-6.800905	5h40
-6.800905	5h41
-6.800905	5h46
-6.800905	6
-6.800905	6%
-6.800905	6,1
-6.800905	6,2
-6.800905	6,25
-6.800905	6,28
-6.800905	6,4
-6.800905	6,4%
-6.800905	6,5
-6.800905	6,66%
-6.800905	6,7
-6.800905	6,8
-6.800905	6,9
-6.800905	6-
-6.800905	6-10
-6.800905	6-19
-6.800905	6-20
-6.800905	6-25%
-6.800905	6-7
-6.800905	6-8
-6.800905	6-8h
-6.800905	6-9
-6.800905	6.000
-6.800905	6.000-7.000
-6.800905	6.100
-6.800905	6.170
-6.800905	6.200
-6.800905	6.300
-6.800905	6.440
-6.800905	6.500
-6.800905	6.510
-6.800905	6.600
-6.800905	6.670
-6.800905	6.700
-6.800905	6.780
-6.800905	6.860
-6.800905	6.870
-6.800905	6.880
-6.800905	6.952
-6.800905	6.960
-6.800905	60
-6.800905	60%
-6.800905	60,5%
-6.800905	60-120
-6.800905	60-140
-6.800905	60-69
-6.800905	60-70
-6.800905	60-70%
-6.800905	60-80
-6.800905	60.000
-6.800905	60.000-100.000
-6.800905	60.500
-6.800905	600
-6.800905	600-700
-6.800905	600-800
-6.800905	600.000
-6.800905	6000
-6.800905	600MW
-6.800905	600mw
-6.800905	602
-6.800905	603.750
-6.800905	604
-6.800905	606.000
-6.800905	61
-6.800905	61%
-6.800905	610
-6.800905	611
-6.800905	614
-6.800905	615
-6.800905	616
-6.800905	62
-6.800905	62,3
-6.800905	62-74
-6.800905	62.000
-6.800905	620
-6.800905	622
-6.800905	623
-6.800905	62C
-6.800905	62c
-6.800905	63
-6.800905	63%
-6.800905	63+400
-6.800905	63,3
-6.800905	63,5
-6.800905	63.000
-6.800905	630
-6.800905	64
-6.800905	64,5%
-6.800905	64.000
-6.800905	640
-6.800905	641.000
-6.800905	643
-6.800905	645
-6.800905	65
-6.800905	65%
-6.800905	65-69
-6.800905	65.000
-6.800905	65.300
-6.800905	65.500
-6.800905	650
-6.800905	650.000
-6.800905	652
-6.800905	655
-6.800905	6560-1999
-6.800905	658
-6.800905	66
-6.800905	66.000
-6.800905	660
-6.800905	665
-6.800905	67
-6.800905	67%
-6.800905	67,15
-6.800905	67,7%
-6.800905	67.300
-6.800905	67.500
-6.800905	670
-6.800905	671
-6.800905	676
-6.800905	67C
-6.800905	67c
-6.800905	68
-6.800905	68%
-6.800905	68-70,5
-6.800905	680
-6.800905	683
-6.800905	69
-6.800905	69%
-6.800905	69.000
-6.800905	69.170
-6.800905	696
-6.800905	6a
-6.800905	6b
-6.800905	6h
-6.800905	6h15
-6.800905	6h20
-6.800905	6h25
-6.800905	6h30
-6.800905	6h30-7h30
-6.800905	6h45
-6.800905	6l3
-6.800905	6m2
-6.800905	6x42
-6.800905	7
-6.800905	7%
-6.800905	7,0
-6.800905	7,2
-6.800905	7,2%
-6.800905	7,26
-6.800905	7,27%
-6.800905	7,5
-6.800905	7,5%
-6.800905	7,54
-6.800905	7,7
-6.800905	7,71
-6.800905	7,75
-6.800905	7,82
-6.800905	7,9
-6.800905	7-
-6.800905	7-10
-6.800905	7-10%
-6.800905	7-10ha
-6.800905	7-13
-6.800905	7-15
-6.800905	7-7,3%
-6.800905	7-7,5%
-6.800905	7-8
-6.800905	7-8h
-6.800905	7-9h
-6.800905	7.000
-6.800905	7.100
-6.800905	7.200
-6.800905	7.300
-6.800905	7.500
-6.800905	7.500-
-6.800905	7.555-9.209
-6.800905	7.740
-6.800905	7.750
-6.800905	7.780
-6.800905	7.880
-6.800905	70
-6.800905	70%
-6.800905	70+958
-6.800905	70-120
-6.800905	70-130
-6.800905	70-80
-6.800905	70-80%
-6.800905	70.000
-6.800905	70.000-100.000
-6.800905	70.000-80.000
-6.800905	700
-6.800905	700-800
-6.800905	700-900
-6.800905	700.000
-6.800905	700.000-1.000.000
-6.800905	704
-6.800905	71
-6.800905	71,8
-6.800905	72
-6.800905	72%
-6.800905	720MW
-6.800905	720mw
-6.800905	727
-6.800905	73
-6.800905	73.000
-6.800905	730
-6.800905	74
-6.800905	74,2%
-6.800905	740
-6.800905	741
-6.800905	744
-6.800905	744.000
-6.800905	747
-6.800905	7470666
-6.800905	75
-6.800905	75%
-6.800905	75,6%
-6.800905	75-90%
-6.800905	75.180
-6.800905	750
-6.800905	750-1.000
-6.800905	750.000
-6.800905	750MW
-6.800905	750mw
-6.800905	756
-6.800905	7566556
-6.800905	76
-6.800905	76-80%
-6.800905	77
-6.800905	77%
-6.800905	771
-6.800905	772
-6.800905	776
-6.800905	7760403
-6.800905	78
-6.800905	78.000
-6.800905	780
-6.800905	785
-6.800905	788
-6.800905	79
-6.800905	79.000
-6.800905	790
-6.800905	793
-6.800905	7A
-6.800905	7A2
-6.800905	7a
-6.800905	7a2
-6.800905	7h
-6.800905	7h15
-6.800905	7h20
-6.800905	7h30
-6.800905	7h40
-6.800905	7h42
-6.800905	8
-6.800905	8%
-6.800905	8%-10%
-6.800905	8,0
-6.800905	8,2
-6.800905	8,4
-6.800905	8,4-15,3
-6.800905	8,6%
-6.800905	8,7
-6.800905	8,9
-6.800905	8,9%
-6.800905	8,94
-6.800905	8-
-6.800905	8-10
-6.800905	8-11
-6.800905	8-15
-6.800905	8-16
-6.800905	8-9
-6.800905	8-9%
-6.800905	8-9h
-6.800905	8.000
-6.800905	8.000-10.000
-6.800905	8.532
-6.800905	8.641467
-6.800905	8.680
-6.800905	8.800
-6.800905	80
-6.800905	80%
-6.800905	80,25
-6.800905	80-150
-6.800905	80-90%
-6.800905	80.000
-6.800905	80.000-100.000
-6.800905	800
-6.800905	800.000
-6.800905	8037
-6.800905	81
-6.800905	81,8%
-6.800905	810
-6.800905	814
-6.800905	816
-6.800905	82
-6.800905	82+700
-6.800905	82.000
-6.800905	820
-6.800905	821
-6.800905	8224430
-6.800905	8232565
-6.800905	824
-6.800905	829
-6.800905	8294180
-6.800905	83
-6.800905	83,3%
-6.800905	83-90
-6.800905	830
-6.800905	830.000
-6.800905	833
-6.800905	835
-6.800905	837
-6.800905	8387521
-6.800905	84
-6.800905	84%
-6.800905	84.000
-6.800905	840.000
-6.800905	845
-6.800905	85
-6.800905	85%
-6.800905	85.000
-6.800905	850
-6.800905	86
-6.800905	86%
-6.800905	86.000
-6.800905	86.900
-6.800905	860
-6.800905	860.240
-6.800905	8642940
-6.800905	8645321
-6.800905	8647755
-6.800905	867.000
-6.800905	87%
-6.800905	870
-6.800905	878
-6.800905	87CP
-6.800905	87cp
-6.800905	88
-6.800905	88%
-6.800905	88,7%
-6.800905	88.000
-6.800905	881
-6.800905	883
-6.800905	886
-6.800905	89
-6.800905	89%
-6.800905	89,2%
-6.800905	89,7%
-6.800905	890
-6.800905	896
-6.800905	8A
-6.800905	8A1
-6.800905	8a
-6.800905	8a1
-6.800905	8b
-6.800905	8h
-6.800905	8h30
-6.800905	8h45
-6.800905	9
-6.800905	9%
-6.800905	9,1
-6.800905	9,28
-6.800905	9,3
-6.800905	9,5
-6.800905	9,5%
-6.800905	9,5-25%
-6.800905	9,6
-6.800905	9-
-6.800905	9-10
-6.800905	9-100
-6.800905	9-11h
-6.800905	9-12
-6.800905	9.000
-6.800905	9.100
-6.800905	9.500
-6.800905	9.580
-6.800905	9.600
-6.800905	9.700
-6.800905	9.790
-6.800905	9.800
-6.800905	9.923
-6.800905	90
-6.800905	90%
-6.800905	90-100
-6.800905	90-100%
-6.800905	90.000
-6.800905	900
-6.800905	900.000
-6.800905	902
-6.800905	903
-6.800905	909
-6.800905	91
-6.800905	91.000
-6.800905	915
-6.800905	919+240
-6.800905	92
-6.800905	92%
-6.800905	920
-6.800905	922
-6.800905	928
-6.800905	92CP
-6.800905	92cp
-6.800905	93
-6.800905	930
-6.800905	937
-6.800905	94
-6.800905	94%
-6.800905	94-95
-6.800905	940
-6.800905	944.24
-6.800905	95
-6.800905	95%
-6.800905	950
-6.800905	952+450
-6.800905	953
-6.800905	96
-6.800905	96,2
-6.800905	96,7%
-6.800905	969
-6.800905	97
-6.800905	97,53
-6.800905	970
-6.800905	98
-6.800905	98,5%
-6.800905	98.000
-6.800905	98.790
-6.800905	980
-6.800905	985
-6.800905	99
-6.800905	99%
-6.800905	990
-6.800905	9999
-6.800905	9h
-6.800905	9h30
-6.800905	:
-6.800905	;
-6.800905	<-root->
-6.800905	</s>
-6.800905	<PUNCT>
-0.7798495	<UNK>	-0.6174601
-6.800905	<punct>
-99	<s>
-6.800905	=
-6.800905	?
-6.800905	@
-6.800905	A
-6.800905	A-B
-6.800905	A-Zinh
-6.800905	A1
-6.800905	A17
-6.800905	A2
-6.800905	A3
-6.800905	A4
-6.800905	A5
-6.800905	A6
-6.800905	A83
-6.800905	A92
-6.800905	AAPP
-6.800905	AASHTO
-6.800905	AC
-6.800905	ADB
-6.800905	ADN
-6.800905	AE
-6.800905	AFTA
-6.800905	AH1
-6.800905	AIA
-6.800905	AIDS
-6.800905	AIPO
-6.800905	APAVE
-6.800905	APEC
-6.800905	ASEAN
-6.800905	ASEM
-6.800905	ASEM-V
-6.800905	ATR
-6.800905	ATS
-6.800905	Abidjan
-6.800905	Accra
-6.800905	Acer
-6.800905	Adam
-6.800905	Adriatic
-6.800905	Advertising
-6.800905	Afganistan
-6.800905	Afghanistan
-6.800905	Ah
-6.800905	Ai
-6.800905	Air
-6.800905	Airlines
-6.800905	Ajun
-6.800905	Akiyoshi
-6.800905	Al
-6.800905	Alpha
-6.800905	Am
-6.800905	Aman
-6.800905	Amata
-6.800905	Amato
-6.800905	Amore
-6.800905	An
-6.800905	Ana
-6.800905	Andrreotta
-6.800905	Angchawala
-6.800905	Anh
-6.800905	Antananarivo
-6.800905	Apex
-6.800905	Aptomat
-6.800905	Arafat
-6.800905	Ariel
-6.800905	Arnold
-6.800905	Asia
-6.800905	Asia-Invest
-6.800905	Asian
-6.800905	Atép
-6.800905	Australia
-6.800905	Avenis
-6.800905	B
-6.800905	B1
-6.800905	B10
-6.800905	B12
-6.800905	B14
-6.800905	B4
-6.800905	B6
-6.800905	B7
-6.800905	BBC
-6.800905	BC2
-6.800905	BCH
-6.800905	BEFEO
-6.800905	BHTN
-6.800905	BHXH
-6.800905	BHYT
-6.800905	BN
-6.800905	BNN-TCCB
-6.800905	BO
-6.800905	BOD
-6.800905	BOT
-6.800905	BP
-6.800905	BQL
-6.800905	BRâm
-6.800905	BS
-6.800905	BT6
-6.800905	BTA
-6.800905	BTTN
-6.800905	BV
-6.800905	BVCSTE
-6.800905	Ba
-6.800905	Baghdad
-6.800905	Bahrain
-6.800905	Ban
-6.800905	Bandar
-6.800905	Bang
-6.800905	Bangkok
-6.800905	Bangladesh
-6.800905	Bao
-6.800905	Barak
-6.800905	Bay
-6.800905	Bee
-6.800905	Beer
-6.800905	Beffeo
-6.800905	Begawan
-6.800905	Believe
-6.800905	Ben
-6.800905	Bengt
-6.800905	Benjamin
-6.800905	Benz
-6.800905	Bertrand
-6.800905	Bi
-6.800905	Bia
-6.800905	Bian
-6.800905	Bibica
-6.800905	Bing
-6.800905	Binh
-6.800905	BirdLife
-6.800905	Biseptol
-6.800905	Biªn
-6.800905	Biªt
-6.800905	Bi«n
-6.800905	Bi«u
-6.800905	Bi¬n
-6.800905	Bi¬u
-6.800905	Bi®n
-6.800905	Biên
-6.800905	Black
-6.800905	Blocquaux
-6.800905	Blue
-6.800905	Blà
-6.800905	Bo
-6.800905	Bobo
-6.800905	Bodega
-6.800905	Boeing
-6.800905	Bom
-6.800905	Bon
-6.800905	Born
-6.800905	Boss
-6.800905	Bourbon
-6.800905	Bra
-6.800905	Brazil
-6.800905	Brel
-6.800905	Bristol-Myers
-6.800905	Bruce
-6.800905	Brunei
-6.800905	Bruno
-6.800905	Brussel
-6.800905	Bua
-6.800905	Buche
-6.800905	Buk
-6.800905	Bull
-6.800905	Buller
-6.800905	Bun
-6.800905	Bung
-6.800905	Bunglung
-6.800905	Burghardt
-6.800905	Burma
-6.800905	Burundi
-6.800905	Bush
-6.800905	Bu°m
-6.800905	Bu°n
-6.800905	Bu±i
-6.800905	Buµc
-6.800905	Buôn
-6.800905	Buông
-6.800905	Byang
-6.800905	B¡c
-6.800905	B¡n
-6.800905	B¡t
-6.800905	B¢ng
-6.800905	B¤t
-6.800905	B¥u
-6.800905	B§c
-6.800905	Bª
-6.800905	Bªn
-6.800905	Bªp
-6.800905	B«
-6.800905	B«n
-6.800905	B¬
-6.800905	B®nh
-6.800905	B¯
-6.800905	B¯i
-6.800905	B¯n
-6.800905	B°
-6.800905	B°i
-6.800905	B°n
-6.800905	B°ng
-6.800905	B±
-6.800905	B±n
-6.800905	B±ng
-6.800905	B²ng
-6.800905	Bµ
-6.800905	BµGD&amp
-6.800905	Bµc
-6.800905	Bµi
-6.800905	B¶
-6.800905	B·i
-6.800905	B¸
-6.800905	B½
-6.800905	B½m
-6.800905	BÐ
-6.800905	BÑc
-6.800905	BÕc
-6.800905	BÕch
-6.800905	BÕn
-6.800905	BÕt
-6.800905	BØu
-6.800905	Bßu
-6.800905	Bß·i
-6.800905	Bß¾c
-6.800905	Bß¾u
-6.800905	Bà
-6.800905	Bài
-6.800905	Bàn
-6.800905	Bàng
-6.800905	Bành
-6.800905	Bàu
-6.800905	Bá
-6.800905	Bác
-6.800905	Bách
-6.800905	Bái
-6.800905	Bán
-6.800905	Bánh
-6.800905	Báo
-6.800905	Bát
-6.800905	Báu
-6.800905	Bây
-6.800905	Bãi
-6.800905	Bão
-6.800905	Bän
-6.800905	Bäng
-6.800905	Bäo
-6.800905	Bäy
-6.800905	Båc
-6.800905	Bång
-6.800905	Bæa
-6.800905	Bè
-6.800905	Bé
-6.800905	Bén
-6.800905	Bê
-6.800905	Bên
-6.800905	Bình
-6.800905	Bí
-6.800905	Bích
-6.800905	Bính
-6.800905	Bíp
-6.800905	Bï
-6.800905	Bïm
-6.800905	Bïnh
-6.800905	Bñc
-6.800905	Bò
-6.800905	Bó
-6.800905	Bóng
-6.800905	Bôi
-6.800905	Bông
-6.800905	Bö
-6.800905	Böng
-6.800905	B÷n
-6.800905	Bøi
-6.800905	Bù
-6.800905	Bùi
-6.800905	Bùng
-6.800905	Búc
-6.800905	Búi
-6.800905	Búk
-6.800905	Bún
-6.800905	Bút
-6.800905	C
-6.800905	C-D
-6.800905	C16
-6.800905	C2
-6.800905	C4
-6.800905	CA
-6.800905	CBNV
-6.800905	CD
-6.800905	CFA
-6.800905	CGS
-6.800905	CH4
-6.800905	CHDC
-6.800905	CHLB
-6.800905	CHND
-6.800905	CHXHCN
-6.800905	CKD
-6.800905	CLB
-6.800905	CLIPPER
-6.800905	CM
-6.800905	CMND
-6.800905	CN
-6.800905	CNH
-6.800905	CNN
-6.800905	CO
-6.800905	CO2
-6.800905	COD
-6.800905	COSEVCO
-6.800905	COV
-6.800905	CP
-6.800905	CP-NÐ
-6.800905	CS
-6.800905	CSCÐ
-6.800905	CSGT
-6.800905	CSVN
-6.800905	CT
-6.800905	CV
-6.800905	CV-PC26
-6.800905	Ca
-6.800905	CadPro
-6.800905	Cafe
-6.800905	Cai
-6.800905	California
-6.800905	Calmette
-6.800905	Cam
-6.800905	Campuchia
-6.800905	Can
-6.800905	Canada
-6.800905	Canbera
-6.800905	Cang
-6.800905	Canh
-6.800905	Cao
-6.800905	Cap
-6.800905	Caravelle
-6.800905	Cascavel
-6.800905	Catage
-6.800905	Ceasar
-6.800905	Cement
-6.800905	Centema
-6.800905	Center
-6.800905	Centre
-6.800905	Centro
-6.800905	Century
-6.800905	Cha
-6.800905	Chai
-6.800905	Chao
-6.800905	Chea
-6.800905	Chemical
-6.800905	Chen
-6.800905	Chi
-6.800905	Chia
-6.800905	Chim
-6.800905	China
-6.800905	Chinfon
-6.800905	Chinh
-6.800905	Chiªc
-6.800905	Chiªn
-6.800905	Chiªu
-6.800905	Chi«u
-6.800905	Chi¬u
-6.800905	Chiêm
-6.800905	Chiên
-6.800905	Chiêu
-6.800905	Cho
-6.800905	Chok
-6.800905	Chol
-6.800905	Chorus
-6.800905	Christian
-6.800905	Christopher
-6.800905	Chro
-6.800905	Chu
-6.800905	Chui
-6.800905	Chung
-6.800905	Chuyªn
-6.800905	Chuy¬n
-6.800905	Chuy®n
-6.800905	Chuyên
-6.800905	Chu¦n
-6.800905	Chuµt
-6.800905	Chuông
-6.800905	Ch¡c
-6.800905	Ch¤m
-6.800905	Ch¤n
-6.800905	Ch¤p
-6.800905	Ch¤t
-6.800905	Ch§m
-6.800905	Ch§t
-6.800905	Chª
-6.800905	Ch¯c
-6.800905	Ch¯i
-6.800905	Ch¯ng
-6.800905	Ch°ng
-6.800905	Ch²
-6.800905	Ch¶
-6.800905	Ch¸
-6.800905	Ch¸u
-6.800905	Ch½i
-6.800905	Ch¾
-6.800905	ChÆng
-6.800905	ChÑc
-6.800905	ChÑng
-6.800905	ChÕy
-6.800905	Ch×ng
-6.800905	ChØ
-6.800905	ChØng
-6.800905	Chß
-6.800905	Chßa
-6.800905	Chßng
-6.800905	Chß½ng
-6.800905	Chà
-6.800905	Chài
-6.800905	Chàm
-6.800905	Chàng
-6.800905	Chào
-6.800905	Chán
-6.800905	Chánh
-6.800905	Cháu
-6.800905	Cháy
-6.800905	Châm
-6.800905	Chân
-6.800905	Châu
-6.800905	Chä
-6.800905	Chäy
-6.800905	Chåm
-6.800905	Chåmpa
-6.800905	Chån
-6.800905	Chång
-6.800905	Chæ
-6.800905	Chè
-6.800905	Chìm
-6.800905	Chí
-6.800905	Chín
-6.800905	Chính
-6.800905	Chï
-6.800905	Chïnh
-6.800905	Chò
-6.800905	Chó
-6.800905	Chông
-6.800905	Ch÷n
-6.800905	Chùa
-6.800905	Chùm
-6.800905	Chúa
-6.800905	Chúc
-6.800905	Chúng
-6.800905	Chü
-6.800905	Chþ
-6.800905	Cien
-6.800905	Cienco
-6.800905	City
-6.800905	Clairefontaine
-6.800905	Co
-6.800905	Co-op
-6.800905	Coca-Cola
-6.800905	Cofidec
-6.800905	Colburn
-6.800905	Coli
-6.800905	Colifoms
-6.800905	Colin
-6.800905	Company
-6.800905	Con
-6.800905	Congo
-6.800905	Connor
-6.800905	Construction
-6.800905	Container
-6.800905	Contardi
-6.800905	Cook
-6.800905	Coopmart
-6.800905	Copenhagen
-6.800905	Copyright
-6.800905	Cora
-6.800905	Corall
-6.800905	Cordless
-6.800905	Corey
-6.800905	Corporation
-6.800905	Coste
-6.800905	Crocodylus
-6.800905	Croo
-6.800905	Cruise
-6.800905	Cruse
-6.800905	Cu
-6.800905	Cuba
-6.800905	Cung
-6.800905	Cup
-6.800905	Curie
-6.800905	Cu¯i
-6.800905	Cu¯n
-6.800905	Cuµc
-6.800905	Cuông
-6.800905	Cyanua
-6.800905	Cyclamate
-6.800905	C¡m
-6.800905	C¡t
-6.800905	C¤m
-6.800905	C¤n
-6.800905	C¤p
-6.800905	C¤u
-6.800905	C¥m
-6.800905	C¥n
-6.800905	C¥u
-6.800905	C¦m
-6.800905	C¦n
-6.800905	C§u
-6.800905	C¯
-6.800905	C¯c
-6.800905	C¯ng
-6.800905	C¯t
-6.800905	C°
-6.800905	C°n
-6.800905	C±
-6.800905	C±ng
-6.800905	C²
-6.800905	Cµng
-6.800905	Cµt
-6.800905	C¶
-6.800905	C·
-6.800905	C½
-6.800905	C½m
-6.800905	C½n
-6.800905	CÐ
-6.800905	CÑ
-6.800905	CÑng
-6.800905	CÑu
-6.800905	CÕn
-6.800905	CÕnh
-6.800905	CÕy
-6.800905	C×
-6.800905	CØ
-6.800905	CØa
-6.800905	CØu
-6.800905	Cß
-6.800905	CßMga
-6.800905	Cß¶ng
-6.800905	Cß½ng
-6.800905	Cß¾c
-6.800905	CßÞng
-6.800905	Cà
-6.800905	Càng
-6.800905	Cào
-6.800905	Cày
-6.800905	Cá
-6.800905	Các
-6.800905	Cách
-6.800905	Cái
-6.800905	Cán
-6.800905	Cánh
-6.800905	Cáp
-6.800905	Cát
-6.800905	Cân
-6.800905	Câu
-6.800905	Cây
-6.800905	Cä
-6.800905	Cäi
-6.800905	Cäm
-6.800905	Cäng
-6.800905	Cänh
-6.800905	Cån
-6.800905	Cñ
-6.800905	Cñc
-6.800905	Cñu
-6.800905	Cò
-6.800905	Còn
-6.800905	Còng
-6.800905	Có
-6.800905	Cót
-6.800905	Cô
-6.800905	Côn
-6.800905	Công
-6.800905	Cö
-6.800905	Cø
-6.800905	Cøc
-6.800905	Cøm
-6.800905	Cù
-6.800905	Cùng
-6.800905	Cú
-6.800905	Cúc
-6.800905	Cún
-6.800905	Cúp
-6.800905	Cûng
-6.800905	Cü
-6.800905	Cüa
-6.800905	Cüng
-6.800905	D
-6.800905	D1
-6.800905	D2
-6.800905	D3
-6.800905	D8
-6.800905	DO
-6.800905	DOC
-6.800905	DWT
-6.800905	Da
-6.800905	Dae
-6.800905	Daewoo
-6.800905	Daewoosa
-6.800905	Daily
-6.800905	Dak
-6.800905	Dakar
-6.800905	Dalia
-6.800905	Danang
-6.800905	Danh
-6.800905	Danida
-6.800905	Dao
-6.800905	Darmstadt
-6.800905	David
-6.800905	Day
-6.800905	Daydé
-6.800905	De
-6.800905	Dea
-6.800905	Deawon
-6.800905	Deawoo
-6.800905	Dehli
-6.800905	Des
-6.800905	Desnise
-6.800905	Di
-6.800905	Diazepar
-6.800905	Dien
-6.800905	Diethelm
-6.800905	Dinh
-6.800905	Dior
-6.800905	Disney
-6.800905	Di«u
-6.800905	Di­m
-6.800905	Di­n
-6.800905	Di®n
-6.800905	Di®p
-6.800905	Di®u
-6.800905	Diêm
-6.800905	Diên
-6.800905	Diêu
-6.800905	Do
-6.800905	Doan
-6.800905	Doanh
-6.800905	Dong
-6.800905	Douala
-6.800905	Douglas
-6.800905	Dow
-6.800905	Doãn
-6.800905	Drak
-6.800905	Dream
-6.800905	Du
-6.800905	Dubai
-6.800905	Duma
-6.800905	Dung
-6.800905	Durand
-6.800905	Dutch
-6.800905	Duy
-6.800905	Duy®t
-6.800905	Duyên
-6.800905	Du¦n
-6.800905	Du§t
-6.800905	Duân
-6.800905	Duênh
-6.800905	Dy
-6.800905	D¤u
-6.800905	D¥n
-6.800905	D¥u
-6.800905	D¥y
-6.800905	D§p
-6.800905	D§u
-6.800905	D­
-6.800905	D®t
-6.800905	Dµng
-6.800905	D¸ch
-6.800905	D¸p
-6.800905	D½i
-6.800905	DÑa
-6.800905	DÕ
-6.800905	DÕng
-6.800905	DÕy
-6.800905	D×a
-6.800905	D×ng
-6.800905	DÞ
-6.800905	Dß
-6.800905	Dßa
-6.800905	Dß¶ng
-6.800905	Dß½ng
-6.800905	Dß¾i
-6.800905	Dßþc
-6.800905	Dài
-6.800905	Dành
-6.800905	Dáng
-6.800905	Dân
-6.800905	Dâu
-6.800905	Dã
-6.800905	Dãy
-6.800905	Däi
-6.800905	Dçu
-6.800905	Dê
-6.800905	Dình
-6.800905	Dî
-6.800905	Dînh
-6.800905	Dñ
-6.800905	Dña
-6.800905	Dñng
-6.800905	Dòng
-6.800905	Dó
-6.800905	D÷c
-6.800905	D÷n
-6.800905	Dø
-6.800905	Døc
-6.800905	Døng
-6.800905	Dù
-6.800905	Dùng
-6.800905	Dû
-6.800905	Dûng
-6.800905	E
-6.800905	E1
-6.800905	E11
-6.800905	E2
-6.800905	E20
-6.800905	E5
-6.800905	EC
-6.800905	EMS
-6.800905	EPC
-6.800905	EPU
-6.800905	EU
-6.800905	EVN
-6.800905	EXPLORER
-6.800905	Ea
-6.800905	Eah
-6.800905	Eakar
-6.800905	Eames
-6.800905	Earthcare
-6.800905	East
-6.800905	Ebaka-Taiseij
-6.800905	Ebara-Taisei
-6.800905	Economy
-6.800905	Ecstasy
-6.800905	Eden
-6.800905	Edge
-6.800905	Ehud
-6.800905	Ejima
-6.800905	El
-6.800905	Em
-6.800905	Email
-6.800905	Enchanteur
-6.800905	Enfagrow
-6.800905	Equatorial
-6.800905	Ernest
-6.800905	Eureka
-6.800905	Eva
-6.800905	Excel
-6.800905	Explicit
-6.800905	Express
-6.800905	F
-6.800905	FA2
-6.800905	FBI
-6.800905	FLAPS
-6.800905	FM
-6.800905	FMD
-6.800905	FO
-6.800905	FPT
-6.800905	Fabry
-6.800905	Fadin
-6.800905	Fafilm
-6.800905	Fashion
-6.800905	Fatima
-6.800905	Fax
-6.800905	Festival
-6.800905	Ford
-6.800905	Formasa
-6.800905	Formosa
-6.800905	Forrest
-6.800905	Fortuna
-6.800905	Fortuner
-6.800905	Fosta
-6.800905	Fotuna
-6.800905	Franc
-6.800905	France
-6.800905	G
-6.800905	G1
-6.800905	G12
-6.800905	G15
-6.800905	G16
-6.800905	G23
-6.800905	G24
-6.800905	G32
-6.800905	G4
-6.800905	G44
-6.800905	G51
-6.800905	G52
-6.800905	G6
-6.800905	GD&amp
-6.800905	GD-ÐT
-6.800905	GDP
-6.800905	GDÐT
-6.800905	GMT+7
-6.800905	GPC
-6.800905	GPLX
-6.800905	GPMB
-6.800905	GS
-6.800905	GS-TS
-6.800905	GS1
-6.800905	GTCC
-6.800905	GTVT
-6.800905	Ga
-6.800905	Gai
-6.800905	Games
-6.800905	Gandhi
-6.800905	Gang
-6.800905	Garden
-6.800905	Gateway
-6.800905	Gaza
-6.800905	Gentamicin
-6.800905	Genting
-6.800905	George
-6.800905	Ghi
-6.800905	Gh«nh
-6.800905	Gi
-6.800905	Gia
-6.800905	Giai
-6.800905	Gian
-6.800905	Giang
-6.800905	Giao
-6.800905	Giersing
-6.800905	Gio
-6.800905	Giuliano
-6.800905	Giuµc
-6.800905	Gi¤y
-6.800905	Gi¥y
-6.800905	Gi¨
-6.800905	Giªng
-6.800905	Gi¯c
-6.800905	Gi¯ng
-6.800905	Gi°ng
-6.800905	Gi¶
-6.800905	Gi¶i
-6.800905	Gi¾i
-6.800905	Giàng
-6.800905	Giày
-6.800905	Giá
-6.800905	Giác
-6.800905	Giám
-6.800905	Gián
-6.800905	Giáng
-6.800905	Giáo
-6.800905	Giáp
-6.800905	Giây
-6.800905	GiâyV¤n
-6.800905	Giã
-6.800905	Giä
-6.800905	Giäi
-6.800905	Giäm
-6.800905	Giäng
-6.800905	Giæ
-6.800905	Giæa
-6.800905	Giêng
-6.800905	Gió
-6.800905	Gióng
-6.800905	Giöi
-6.800905	Giúp
-6.800905	Gladunov
-6.800905	Glenn
-6.800905	Global
-6.800905	Glory
-6.800905	Gobi
-6.800905	Goethe
-6.800905	Goh
-6.800905	Gom
-6.800905	Gorbatko
-6.800905	Gossip
-6.800905	Gosta
-6.800905	Grai
-6.800905	Guiness
-6.800905	Gunther
-6.800905	Guoman
-6.800905	Guy
-6.800905	G¡n
-6.800905	G£p
-6.800905	G¤p
-6.800905	G¥m
-6.800905	G¥n
-6.800905	G¯m
-6.800905	G°m
-6.800905	G²
-6.800905	Gµp
-6.800905	GÐ
-6.800905	GÐ&amp
-6.800905	GÐH
-6.800905	GÐXH
-6.800905	GÕch
-6.800905	GÕo
-6.800905	GØi
-6.800905	Gß½m
-6.800905	Gà
-6.800905	Gài
-6.800905	Gành
-6.800905	Gái
-6.800905	Gánh
-6.800905	Gây
-6.800905	Gò
-6.800905	Gòn
-6.800905	Góc
-6.800905	Gói
-6.800905	Góp
-6.800905	Gót
-6.800905	Gôn
-6.800905	Gõ
-6.800905	G÷i
-6.800905	H
-6.800905	HBsAg
-6.800905	HC
-6.800905	HCM
-6.800905	HDND
-6.800905	HIV
-6.800905	HN
-6.800905	HNM
-6.800905	HS
-6.800905	HTX
-6.800905	HYUNDAI
-6.800905	Ha
-6.800905	Hacinco
-6.800905	Hagen
-6.800905	Hai
-6.800905	Hang
-6.800905	Hanh
-6.800905	Hank
-6.800905	Hanoi
-6.800905	Hasaco
-6.800905	Hawaii
-6.800905	Hay
-6.800905	Headway
-6.800905	Hemingway
-6.800905	Hempic
-6.800905	Hendrie
-6.800905	Henry
-6.800905	Heo
-6.800905	Herman
-6.800905	Hinh
-6.800905	Hino
-6.800905	Histerie
-6.800905	Hiªm
-6.800905	Hiªn
-6.800905	Hiªu
-6.800905	Hi«n
-6.800905	Hi¬m
-6.800905	Hi¬n
-6.800905	Hi¬u
-6.800905	Hi®n
-6.800905	Hi®p
-6.800905	Hi®u
-6.800905	Hiên
-6.800905	Ho
-6.800905	Hoa
-6.800905	Hoan
-6.800905	Hollywood
-6.800905	Hom
-6.800905	Hommes
-6.800905	Honda
-6.800905	Hong
-6.800905	Honolulu
-6.800905	Horison
-6.800905	Hospital
-6.800905	Hoval
-6.800905	Ho¢ng
-6.800905	Ho£c
-6.800905	HoÕch
-6.800905	HoÕt
-6.800905	Hoà
-6.800905	Hoài
-6.800905	Hoàn
-6.800905	Hoàng
-6.800905	Hoành
-6.800905	Hoá
-6.800905	Hoán
-6.800905	Hoä
-6.800905	Hoän
-6.800905	Hoäng
-6.800905	Huar
-6.800905	Huber
-6.800905	Hue
-6.800905	Hugh
-6.800905	Hun
-6.800905	Hung
-6.800905	Hussein
-6.800905	Huy
-6.800905	Huyndai
-6.800905	Huynh
-6.800905	Huyªt
-6.800905	Huy«n
-6.800905	Huy®n
-6.800905	Huyên
-6.800905	Hu¤n
-6.800905	Huª
-6.800905	Hu®
-6.800905	Hu±i
-6.800905	HuÏnh
-6.800905	HuÖ
-6.800905	Huân
-6.800905	Huê
-6.800905	Hy
-6.800905	Hyder
-6.800905	Hyundai
-6.800905	H¡c
-6.800905	H¡n
-6.800905	H¢ng
-6.800905	H¥m
-6.800905	H¥u
-6.800905	H§u
-6.800905	Hªt
-6.800905	H«u
-6.800905	H­
-6.800905	H®
-6.800905	H¯
-6.800905	H°
-6.800905	H°i
-6.800905	H°ng
-6.800905	H±
-6.800905	H²
-6.800905	H²n
-6.800905	Hµ
-6.800905	Hµi
-6.800905	Hµp
-6.800905	H½
-6.800905	H½i
-6.800905	H½n
-6.800905	H¾i
-6.800905	H¾n
-6.800905	HÐBA
-6.800905	HÐH
-6.800905	HÐND
-6.800905	HÐNN
-6.800905	HÐQT
-6.800905	HÑa
-6.800905	HÕ
-6.800905	HÕn
-6.800905	HÕng
-6.800905	HÕnh
-6.800905	HÕt
-6.800905	HÖ
-6.800905	Hß
-6.800905	Hßng
-6.800905	Hß¶ng
-6.800905	Hß·ng
-6.800905	Hß½ng
-6.800905	Hß½ngÄnh
-6.800905	Hß¾ng
-6.800905	Hà
-6.800905	Hàm
-6.800905	Hàn
-6.800905	Hàng
-6.800905	Hành
-6.800905	Hào
-6.800905	Hàu
-6.800905	Hán
-6.800905	Hát
-6.800905	Hâm
-6.800905	Hân
-6.800905	Hãn
-6.800905	Hãng
-6.800905	Hãy
-6.800905	Häi
-6.800905	Häo
-6.800905	Hæu
-6.800905	Hè
-6.800905	Hê
-6.800905	Hëm
-6.800905	Hì
-6.800905	Hình
-6.800905	Hòa
-6.800905	Hòn
-6.800905	Hóa
-6.800905	Hóc
-6.800905	Hói
-6.800905	Hô
-6.800905	Hôm
-6.800905	Hôn
-6.800905	Hông
-6.800905	Höa
-6.800905	Höi
-6.800905	H÷
-6.800905	H÷a
-6.800905	H÷c
-6.800905	H÷ng
-6.800905	Hùm
-6.800905	Hùng
-6.800905	Hû
-6.800905	Hü
-6.800905	Hþi
-6.800905	Hþp
-6.800905	I
-6.800905	IBA
-6.800905	IBAs
-6.800905	ICP
-6.800905	IFA
-6.800905	IHI
-6.800905	II
-6.800905	III
-6.800905	ILO
-6.800905	IMA
-6.800905	IPEC
-6.800905	ISO
-6.800905	ISP
-6.800905	ITC
-6.800905	IUCN
-6.800905	IV
-6.800905	IVR
-6.800905	IX
-6.800905	IXP
-6.800905	Ia
-6.800905	Iar
-6.800905	Iceland
-6.800905	Imperial
-6.800905	In
-6.800905	Includes
-6.800905	Indira
-6.800905	Indonesia
-6.800905	Insurance
-6.800905	Inter
-6.800905	Internet
-6.800905	Interserco
-6.800905	Iraq
-6.800905	Islam
-6.800905	Ismail
-6.800905	Israel
-6.800905	It
-6.800905	Italia
-6.800905	Italy
-6.800905	Itzik
-6.800905	Ivanov
-6.800905	JBIC
-6.800905	JICA
-6.800905	JK
-6.800905	JTF-FA
-6.800905	Jae
-6.800905	Jakarta
-6.800905	James
-6.800905	JangDong
-6.800905	Jazz
-6.800905	Jea
-6.800905	Jea-claude
-6.800905	Jean
-6.800905	Jeanmonod
-6.800905	Jesus
-6.800905	Jimmi
-6.800905	John
-6.800905	Jonathan
-6.800905	Jordan
-6.800905	Judo
-6.800905	Jun
-6.800905	Juncker
-6.800905	Junichiro
-6.800905	Jút
-6.800905	K
-6.800905	K1
-6.800905	K10
-6.800905	K11
-6.800905	K11b
-6.800905	K12
-6.800905	K17
-6.800905	K18
-6.800905	K2
-6.800905	K3
-6.800905	K9
-6.800905	KCN
-6.800905	KCX
-6.800905	KG
-6.800905	KH&amp
-6.800905	KH-CN&amp
-6.800905	KHCN
-6.800905	KHCN&amp
-6.800905	KHCNMT
-6.800905	KHKT
-6.800905	KHTN&amp
-6.800905	KHXH
-6.800905	KHXH&amp
-6.800905	KSND
-6.800905	KT
-6.800905	KT3
-6.800905	KT4
-6.800905	KTCS-XH
-6.800905	KTS
-6.800905	KTTT
-6.800905	KV
-6.800905	KVA
-6.800905	KW
-6.800905	Ka
-6.800905	Kajima
-6.800905	Kang
-6.800905	Kao
-6.800905	Kar
-6.800905	Karaoke
-6.800905	Karim
-6.800905	Kaslanikov
-6.800905	Kasyanov
-6.800905	Kazakhstan
-6.800905	Kbang
-6.800905	KenoWiede
-6.800905	Kha
-6.800905	Khai
-6.800905	Kham
-6.800905	Khang
-6.800905	Khanh
-6.800905	Khay
-6.800905	Khe
-6.800905	Khen
-6.800905	Khi
-6.800905	Khiªt
-6.800905	Khiªu
-6.800905	Khi¬n
-6.800905	Khiêm
-6.800905	Khiêu
-6.800905	Khmer
-6.800905	Kho
-6.800905	Khoa
-6.800905	Khoai
-6.800905	Khoan
-6.800905	Khoái
-6.800905	Khoáng
-6.800905	Khoän
-6.800905	Khoäng
-6.800905	Khoë
-6.800905	Khristenko
-6.800905	Khu
-6.800905	Khum
-6.800905	Khuya
-6.800905	Khuyªn
-6.800905	Khuyªt
-6.800905	Khuyên
-6.800905	Khu¤t
-6.800905	Khu¬
-6.800905	Khuân
-6.800905	Khuê
-6.800905	Khuôn
-6.800905	Kh¡c
-6.800905	Kh¦n
-6.800905	Kh¦u
-6.800905	Khª
-6.800905	Khªn
-6.800905	Kh¯i
-6.800905	Kh±
-6.800905	Kh±ng
-6.800905	Kh·i
-6.800905	KhÆng
-6.800905	Khß½ng
-6.800905	Khá
-6.800905	Khác
-6.800905	Khách
-6.800905	Khái
-6.800905	Khám
-6.800905	Khán
-6.800905	Kháng
-6.800905	Khánh
-6.800905	Khát
-6.800905	Khâm
-6.800905	Khâu
-6.800905	Khä
-6.800905	Khäi
-6.800905	Khäo
-6.800905	Khån
-6.800905	Khéo
-6.800905	Khê
-6.800905	Khêm
-6.800905	Khí
-6.800905	Khó
-6.800905	Khóa
-6.800905	Khói
-6.800905	Khô
-6.800905	Khôi
-6.800905	Không
-6.800905	Khöe
-6.800905	Khúc
-6.800905	Kiev
-6.800905	Kim
-6.800905	Kin
-6.800905	Kinh
-6.800905	Kinhdoanh
-6.800905	Kinhte
-6.800905	Kiªm
-6.800905	Kiªn
-6.800905	Kiªp
-6.800905	Kiªt
-6.800905	Ki«m
-6.800905	Ki«u
-6.800905	Ki¬m
-6.800905	Ki¬n
-6.800905	Ki¬ng
-6.800905	Ki¬u
-6.800905	Ki®m
-6.800905	Ki®t
-6.800905	Ki®u
-6.800905	Kiêm
-6.800905	Kiên
-6.800905	Kiêu
-6.800905	Klíu
-6.800905	Km
-6.800905	Km100+400
-6.800905	Km108
-6.800905	Km12
-6.800905	Ko
-6.800905	Koei
-6.800905	Koerte
-6.800905	Koizumi
-6.800905	Kon
-6.800905	Kong
-6.800905	Kongpongchàm
-6.800905	Kontum
-6.800905	Kovaleskaia
-6.800905	Kratiê
-6.800905	Krông
-6.800905	Kuala
-6.800905	Kun
-6.800905	Kuptsov
-6.800905	Kuwait
-6.800905	Kyung
-6.800905	K©o
-6.800905	K©t
-6.800905	Kª
-6.800905	Kªt
-6.800905	K¬
-6.800905	KÏ
-6.800905	KÕn
-6.800905	KÖ
-6.800905	KÛ
-6.800905	KÜ
-6.800905	Kà
-6.800905	Kè
-6.800905	Kèm
-6.800905	Kéo
-6.800905	Kê
-6.800905	Kênh
-6.800905	Kë
-6.800905	Kình
-6.800905	Kía
-6.800905	Kích
-6.800905	Kính
-6.800905	Ký
-6.800905	L
-6.800905	LB
-6.800905	LG-VINA
-6.800905	LHQ
-6.800905	LHTN
-6.800905	LOD
-6.800905	LRT
-6.800905	La
-6.800905	Laden
-6.800905	Ladies
-6.800905	Lady
-6.800905	Lagos
-6.800905	Lai
-6.800905	Lam
-6.800905	Lambro
-6.800905	Lan
-6.800905	Lancaster
-6.800905	Lancome
-6.800905	Lancôme
-6.800905	Land
-6.800905	Lang
-6.800905	Lanh
-6.800905	Lanka
-6.800905	Lao
-6.800905	Laodong
-6.800905	Lapresse
-6.800905	Larry
-6.800905	Las
-6.800905	Lasan
-6.800905	Latin
-6.800905	Lau
-6.800905	Lay
-6.800905	Lebanon
-6.800905	Lee
-6.800905	Legamex
-6.800905	Legends
-6.800905	Leipzig
-6.800905	Leningrad
-6.800905	Leo
-6.800905	Leone
-6.800905	Leslie
-6.800905	Li
-6.800905	Liberia
-6.800905	Libi
-6.800905	Libreville
-6.800905	Libya
-6.800905	Likud
-6.800905	Limited
-6.800905	Limor
-6.800905	Linda
-6.800905	Lindqvist
-6.800905	Linh
-6.800905	Lisa
-6.800905	Livnat
-6.800905	Li­u
-6.800905	Li®t
-6.800905	Li®u
-6.800905	Liêm
-6.800905	Liên
-6.800905	Liêu
-6.800905	Lo
-6.800905	Loa
-6.800905	Loan
-6.800905	Lodge
-6.800905	London
-6.800905	Long
-6.800905	Loong
-6.800905	Lotus
-6.800905	LoÕi
-6.800905	LoÕn
-6.800905	Loài
-6.800905	Lu
-6.800905	Lucky
-6.800905	Lumpur
-6.800905	Lund
-6.800905	Lux
-6.800905	Luxembourg
-6.800905	Luy®n
-6.800905	Lu§n
-6.800905	Lu§t
-6.800905	Luân
-6.800905	Luông
-6.800905	Ly
-6.800905	Lyelle
-6.800905	Lyonnaise
-6.800905	L¡c
-6.800905	L¡k
-6.800905	L¡m
-6.800905	L¡p
-6.800905	L¤n
-6.800905	L¤y
-6.800905	L¥n
-6.800905	L¥u
-6.800905	L§p
-6.800905	L§t
-6.800905	L¨
-6.800905	L­
-6.800905	L®
-6.800905	L®ch
-6.800905	L®nh
-6.800905	L¯c
-6.800905	L¯i
-6.800905	L²
-6.800905	L²i
-6.800905	Lµ
-6.800905	Lµc
-6.800905	Lµn
-6.800905	L¶i
-6.800905	L·
-6.800905	L¸ch
-6.800905	L½i
-6.800905	L¾n
-6.800905	L¾p
-6.800905	LÐ
-6.800905	LÐ-TB&amp
-6.800905	LÐLÐVN
-6.800905	LÐTB&amp
-6.800905	LÐTB-XH
-6.800905	LÐTBXH-QÐ
-6.800905	LÑc
-6.800905	LÕc
-6.800905	LÕi
-6.800905	LÕm
-6.800905	LÕn
-6.800905	LÕng
-6.800905	LÕt
-6.800905	L×
-6.800905	LØa
-6.800905	Lß
-6.800905	Lßng
-6.800905	Lßu
-6.800905	Lß¶ng
-6.800905	Lß½i
-6.800905	Lß½ng
-6.800905	Lßþc
-6.800905	Lßþng
-6.800905	Là
-6.800905	Lài
-6.800905	Làm
-6.800905	Làn
-6.800905	Làng
-6.800905	Lành
-6.800905	Lào
-6.800905	Lá
-6.800905	Lách
-6.800905	Lái
-6.800905	Láng
-6.800905	Lâm
-6.800905	Lân
-6.800905	Lâu
-6.800905	Lây
-6.800905	Lã
-6.800905	Lãng
-6.800905	Lãnh
-6.800905	Lão
-6.800905	Låk
-6.800905	Lång
-6.800905	Læ
-6.800905	Lçn
-6.800905	Lèn
-6.800905	Lèng
-6.800905	Lé
-6.800905	Lê
-6.800905	Lên
-6.800905	Lênh
-6.800905	Lênin
-6.800905	Lînh
-6.800905	Lñc
-6.800905	Lñm
-6.800905	Lò
-6.800905	Lòng
-6.800905	Lót
-6.800905	Lô
-6.800905	Lôi
-6.800905	L÷c
-6.800905	Løc
-6.800905	Løt
-6.800905	Lù
-6.800905	Lùng
-6.800905	Lúa
-6.800905	Lúc
-6.800905	Lún
-6.800905	Lû
-6.800905	Lûng
-6.800905	Lûy
-6.800905	Lý
-6.800905	Lþi
-6.800905	Lþn
-6.800905	M
-6.800905	M1
-6.800905	M18L
-6.800905	M2
-6.800905	M3
-6.800905	MS-DOS
-6.800905	MT
-6.800905	MTTQ
-6.800905	MTTQVN
-6.800905	MTV
-6.800905	MVA
-6.800905	MVN
-6.800905	MW
-6.800905	Ma
-6.800905	Mabuchi
-6.800905	Madagasca
-6.800905	Madagascar
-6.800905	Madison
-6.800905	Madrid
-6.800905	Magazine
-6.800905	Magic
-6.800905	Mahone
-6.800905	Mai
-6.800905	Malaysia
-6.800905	Mang
-6.800905	Manhattan
-6.800905	Mann
-6.800905	Mara
-6.800905	Marel
-6.800905	Marie
-6.800905	Marine
-6.800905	Mariner
-6.800905	Mark
-6.800905	Marko
-6.800905	Mart
-6.800905	Maru
-6.800905	Maruwa
-6.800905	Mary
-6.800905	Massachusetts
-6.800905	Massage
-6.800905	Matiz
-6.800905	Mau
-6.800905	May
-6.800905	Maylaysia
-6.800905	Mclean
-6.800905	Media
-6.800905	Medvedev
-6.800905	Mekong
-6.800905	Melia
-6.800905	Memorandum
-6.800905	Methyl
-6.800905	Metropolitan
-6.800905	Mexico
-6.800905	Mi
-6.800905	Mianma
-6.800905	Michael
-6.800905	Mikhail
-6.800905	Min
-6.800905	Minh
-6.800905	Mireja
-6.800905	Mitsubishi
-6.800905	Miªu
-6.800905	Mi«n
-6.800905	Mi­n
-6.800905	Mi­u
-6.800905	Mi®n
-6.800905	Miên
-6.800905	Miêu
-6.800905	Mo
-6.800905	Mobile
-6.800905	Modunkiri
-6.800905	Mohamed
-6.800905	Moi
-6.800905	Moldova
-6.800905	Mong
-6.800905	Monsanto
-6.800905	Morten
-6.800905	Moscoso
-6.800905	Moses
-6.800905	Mua
-6.800905	Muara
-6.800905	Mugabe
-6.800905	Mukhtar
-6.800905	Mun
-6.800905	Murwa
-6.800905	Mutual
-6.800905	Mu¯i
-6.800905	Mu¯n
-6.800905	Muôn
-6.800905	My
-6.800905	Myamar
-6.800905	Myanma
-6.800905	Myanmar
-6.800905	M¡m
-6.800905	M¡t
-6.800905	M£c
-6.800905	M£t
-6.800905	M¤t
-6.800905	M¤y
-6.800905	M¥m
-6.800905	M¥n
-6.800905	M§t
-6.800905	M§u
-6.800905	M©
-6.800905	M©o
-6.800905	Mªn
-6.800905	M­
-6.800905	M®nh
-6.800905	M®t
-6.800905	M¯c
-6.800905	M¯ng
-6.800905	M°ng
-6.800905	M²
-6.800905	M²i
-6.800905	Mµ
-6.800905	Mµc
-6.800905	Mµng
-6.800905	Mµt
-6.800905	M¶i
-6.800905	M·
-6.800905	M½
-6.800905	M¾i
-6.800905	MÑc
-6.800905	MÕc
-6.800905	MÕch
-6.800905	MÕi
-6.800905	MÕng
-6.800905	MÕnh
-6.800905	MÕo
-6.800905	M×ng
-6.800905	MÛ
-6.800905	MÜ
-6.800905	Mßa
-6.800905	Mßu
-6.800905	Mß¶i
-6.800905	Mß¶ng
-6.800905	Mß½ng
-6.800905	Mßþn
-6.800905	Mà
-6.800905	Màu
-6.800905	Mày
-6.800905	Má
-6.800905	Mái
-6.800905	Mán
-6.800905	Mát
-6.800905	Mátxc½va
-6.800905	Máy
-6.800905	Mâm
-6.800905	Mân
-6.800905	Mâu
-6.800905	Mây
-6.800905	Mã
-6.800905	Mãi
-6.800905	Mãng
-6.800905	Mão
-6.800905	Mä
-6.800905	Mäng
-6.800905	Mång
-6.800905	Mçn
-6.800905	Mçu
-6.800905	Mè
-6.800905	Mèo
-6.800905	Mé
-6.800905	Mép
-6.800905	Mê
-6.800905	Mì
-6.800905	Mình
-6.800905	Mít
-6.800905	Mñc
-6.800905	Mò
-6.800905	Món
-6.800905	Móng
-6.800905	Mô
-6.800905	Môi
-6.800905	Môn
-6.800905	Mông
-6.800905	Mö
-6.800905	M÷i
-6.800905	Mø
-6.800905	Møc
-6.800905	Mùa
-6.800905	Mùi
-6.800905	Mû
-6.800905	Mûi
-6.800905	N
-6.800905	N1
-6.800905	N2
-6.800905	NCCD
-6.800905	ND
-6.800905	NH3
-6.800905	NH4+
-6.800905	NLÐ
-6.800905	NME
-6.800905	NN
-6.800905	NN&amp
-6.800905	NO2
-6.800905	NTNN
-6.800905	NTÐ
-6.800905	NV
-6.800905	NXB
-6.800905	Na
-6.800905	Nai
-6.800905	Nakata
-6.800905	Nakydaco
-6.800905	Nam
-6.800905	Nan
-6.800905	Nang
-6.800905	Nao
-6.800905	Nauy
-6.800905	Nawoo
-6.800905	Nay
-6.800905	Nesler
-6.800905	Netanyahu
-6.800905	Netnam
-6.800905	New
-6.800905	News
-6.800905	Newsweek
-6.800905	Ng
-6.800905	Nga
-6.800905	Ngai
-6.800905	Ngang
-6.800905	Ngay
-6.800905	Nghe
-6.800905	Nghi
-6.800905	Nghi®p
-6.800905	Nghiêm
-6.800905	Nghiên
-6.800905	Ngh«
-6.800905	Ngh®
-6.800905	Ngh¸
-6.800905	Ngh¸ch
-6.800905	Nghè
-6.800905	Nghèo
-6.800905	Nghé
-6.800905	Nghî
-6.800905	Nghîa
-6.800905	Ngoan
-6.800905	Ngon
-6.800905	NgoÕi
-6.800905	NgoÕn
-6.800905	Ngoài
-6.800905	Ngum
-6.800905	Nguy
-6.800905	Nguy­n
-6.800905	Nguy®t
-6.800905	Nguyên
-6.800905	Ngu°n
-6.800905	Ng§p
-6.800905	Ng°i
-6.800905	Ngµ
-6.800905	Ng¶i
-6.800905	NgÑa
-6.800905	NgÕc
-6.800905	NgÕn
-6.800905	Ng×ng
-6.800905	Ngß
-6.800905	Ngßng
-6.800905	Ngßu
-6.800905	Ngß¶i
-6.800905	Ngß½u
-6.800905	Ngßþc
-6.800905	Ngà
-6.800905	Ngài
-6.800905	Ngàn
-6.800905	Ngành
-6.800905	Ngày
-6.800905	Ngân
-6.800905	Ngã
-6.800905	Ngãi
-6.800905	Ngån
-6.800905	Ngæ
-6.800905	Ngñ
-6.800905	Ngó
-6.800905	Ngói
-6.800905	Ngô
-6.800905	Ngôi
-6.800905	Ngôn
-6.800905	Ngõ
-6.800905	Ng÷
-6.800905	Ng÷c
-6.800905	Ng÷n
-6.800905	Ngøy
-6.800905	Ngû
-6.800905	Ngþn
-6.800905	Nha
-6.800905	Nhai
-6.800905	Nhan
-6.800905	Nhandan
-6.800905	Nhanh
-6.800905	Nhi
-6.800905	Nhim
-6.800905	Nhi«u
-6.800905	Nhi­m
-6.800905	Nhi®m
-6.800905	Nhi®t
-6.800905	Nhiên
-6.800905	Nhiêu
-6.800905	Nho
-6.800905	Nhu
-6.800905	Nhung
-6.800905	Nhu¥n
-6.800905	Nhu§n
-6.800905	Nhuª
-6.800905	Nhu®
-6.800905	Nh¡c
-6.800905	Nh¡n
-6.800905	Nh¢m
-6.800905	Nh¤t
-6.800905	Nh§n
-6.800905	Nh§t
-6.800905	Nh©
-6.800905	Nhªch
-6.800905	Nh¯n
-6.800905	Nh±n
-6.800905	Nhµn
-6.800905	Nh¶
-6.800905	Nh¸
-6.800905	Nh¸p
-6.800905	Nh½n
-6.800905	Nh¾
-6.800905	NhÑc
-6.800905	NhÕ
-6.800905	NhÕc
-6.800905	NhÕn
-6.800905	Nhß
-6.800905	Nhßng
-6.800905	Nhà
-6.800905	Nhàn
-6.800905	Nhánh
-6.800905	Nhâm
-6.800905	Nhân
-6.800905	NhânÄnh
-6.800905	Nhäy
-6.800905	Nhæng
-6.800905	Nhçn
-6.800905	Nhìn
-6.800905	Nhña
-6.800905	Nhñt
-6.800905	Nhóm
-6.800905	Nhö
-6.800905	Nhùn
-6.800905	Ni
-6.800905	Nin
-6.800905	Ninh
-6.800905	Nino
-6.800905	Nippon
-6.800905	Nivea
-6.800905	Niêm
-6.800905	Niên
-6.800905	Niêu
-6.800905	No
-6.800905	Noel
-6.800905	Noi
-6.800905	Nokia
-6.800905	Nomura
-6.800905	Non
-6.800905	Norodom
-6.800905	Not
-6.800905	Num
-6.800905	Number
-6.800905	Nung
-6.800905	Nu¯t
-6.800905	Nuôi
-6.800905	N¡m
-6.800905	N¡ng
-6.800905	N¢m
-6.800905	N§m
-6.800905	Nªp
-6.800905	Nªu
-6.800905	N«n
-6.800905	N¯i
-6.800905	N¯t
-6.800905	N°i
-6.800905	N°ng
-6.800905	N±
-6.800905	N²
-6.800905	N²i
-6.800905	Nµi
-6.800905	Nµp
-6.800905	N·
-6.800905	N½
-6.800905	N½i
-6.800905	N½ng
-6.800905	NÇng
-6.800905	NÐ
-6.800905	NÐ-CP
-6.800905	NÕi
-6.800905	NÕn
-6.800905	NØa
-6.800905	Nß½i
-6.800905	Nß¾c
-6.800905	Nà
-6.800905	Ná
-6.800905	Nâm
-6.800905	Nâng
-6.800905	Não
-6.800905	Nåm
-6.800905	Nång
-6.800905	Næ
-6.800905	Nçm
-6.800905	Né
-6.800905	Nét
-6.800905	Nên
-6.800905	Nó
-6.800905	Nói
-6.800905	Nô
-6.800905	Nôm
-6.800905	Nông
-6.800905	N÷c
-6.800905	Núi
-6.800905	Nút
-6.800905	O
-6.800905	ODA
-6.800905	ODYSSNEY
-6.800905	OSC-SMI
-6.800905	Oa
-6.800905	Oai
-6.800905	Oan
-6.800905	Oanh
-6.800905	Oasis
-6.800905	Obayshi
-6.800905	Ocean
-6.800905	Oddson
-6.800905	Oddsson
-6.800905	Oil
-6.800905	Old
-6.800905	Olympic
-6.800905	Oman
-6.800905	On
-6.800905	One
-6.800905	Ong
-6.800905	Online
-6.800905	Oresol
-6.800905	Orient
-6.800905	P
-6.800905	P1
-6.800905	PA38
-6.800905	PCB
-6.800905	PCCC
-6.800905	PGS
-6.800905	PMU
-6.800905	PT
-6.800905	PTCS
-6.800905	PTF
-6.800905	PTNN
-6.800905	PTNT
-6.800905	PTSC
-6.800905	PTTH
-6.800905	Pa
-6.800905	Pagan
-6.800905	Pai
-6.800905	Paix
-6.800905	Pak
-6.800905	Palestine
-6.800905	Palisads
-6.800905	Palmolive
-6.800905	Pamin
-6.800905	Pamvist
-6.800905	Panama
-6.800905	Paolo
-6.800905	Paracetamon
-6.800905	Paradise
-6.800905	Paragoay
-6.800905	Paranabrasil
-6.800905	Parathion
-6.800905	Pari
-6.800905	Paris
-6.800905	Park
-6.800905	Pasteur
-6.800905	Paul
-6.800905	Penh
-6.800905	Penicilin
-6.800905	Peteer
-6.800905	Petersburg
-6.800905	Petro
-6.800905	Petrolimex
-6.800905	Petronas
-6.800905	Ph
-6.800905	Pha
-6.800905	Phan
-6.800905	Phang
-6.800905	Phay
-6.800905	Phe
-6.800905	Phi
-6.800905	Phil
-6.800905	Philippin
-6.800905	Philippines
-6.800905	Phillin
-6.800905	Phim
-6.800905	Phiên
-6.800905	Phiêu
-6.800905	Phnom
-6.800905	Phnôm
-6.800905	Pho
-6.800905	Phomkhe
-6.800905	Phong
-6.800905	Phuket
-6.800905	Ph¤n
-6.800905	Ph¥n
-6.800905	Ph§p
-6.800905	Ph§t
-6.800905	Ph¯
-6.800905	Ph¯i
-6.800905	Ph±
-6.800905	Ph·
-6.800905	PhÕm
-6.800905	PhÕt
-6.800905	Phß¶ng
-6.800905	Phß½ng
-6.800905	Phß¾c
-6.800905	Phß¾ng
-6.800905	Phßþng
-6.800905	Phà
-6.800905	Phá
-6.800905	Phách
-6.800905	Phái
-6.800905	Phán
-6.800905	Pháo
-6.800905	Pháp
-6.800905	Phát
-6.800905	Phân
-6.800905	Phä
-6.800905	Phäi
-6.800905	Phän
-6.800905	Phçu
-6.800905	Phép
-6.800905	Phì
-6.800905	Phí
-6.800905	Phía
-6.800905	Phòng
-6.800905	Phó
-6.800905	Phóng
-6.800905	Phô
-6.800905	Phø
-6.800905	Phøc
-6.800905	Phøng
-6.800905	Phù
-6.800905	Phùng
-6.800905	Phú
-6.800905	Phúc
-6.800905	Phút
-6.800905	Phü
-6.800905	Piano
-6.800905	Picardie
-6.800905	Pillé
-6.800905	Pinh
-6.800905	Pittburg
-6.800905	Plastic
-6.800905	Plaza
-6.800905	Plei
-6.800905	Pleiku
-6.800905	Plekhanov
-6.800905	Poitier
-6.800905	Port
-6.800905	Portal
-6.800905	Porte
-6.800905	Porter
-6.800905	Powel
-6.800905	Powell
-6.800905	Prenn
-6.800905	Prikhodko
-6.800905	Program
-6.800905	Promenade
-6.800905	Prông
-6.800905	Pui
-6.800905	Pulikovski
-6.800905	Putin
-6.800905	P¡c
-6.800905	P¡k
-6.800905	Pà
-6.800905	Pách
-6.800905	Pát
-6.800905	Pä
-6.800905	Päu
-6.800905	Påh
-6.800905	Påk
-6.800905	Pèng
-6.800905	Pênh
-6.800905	Pô
-6.800905	Pôn
-6.800905	Q
-6.800905	QG
-6.800905	QH
-6.800905	QL
-6.800905	QL32
-6.800905	QL37
-6.800905	QLGT
-6.800905	QLTT
-6.800905	Qua
-6.800905	Quan
-6.800905	Quang
-6.800905	Quanh
-6.800905	Quao
-6.800905	Quatar
-6.800905	Quay
-6.800905	Quaykers
-6.800905	Que
-6.800905	Queen
-6.800905	Qui
-6.800905	Quy
-6.800905	Quyªn
-6.800905	Quyªt
-6.800905	Quy«n
-6.800905	Quyên
-6.800905	Qu¤t
-6.800905	Qu¥n
-6.800905	Qu¥y
-6.800905	Qu§n
-6.800905	Qu©o
-6.800905	Quª
-6.800905	Qu¯c
-6.800905	Qu¾i
-6.800905	QuÏ
-6.800905	QuÏnh
-6.800905	QuÛ
-6.800905	QuÜ
-6.800905	Quà
-6.800905	Quàng
-6.800905	Quá
-6.800905	Quách
-6.800905	Quán
-6.800905	Quân
-6.800905	Quä
-6.800905	Quän
-6.800905	Quäng
-6.800905	Quê
-6.800905	Quô
-6.800905	Quý
-6.800905	QÐ-TCBÐ
-6.800905	QÐ-TTg
-6.800905	QÐ-UB
-6.800905	QÐND
-6.800905	QÐNDVN
-6.800905	R
-6.800905	REE
-6.800905	REX
-6.800905	Ra
-6.800905	Rabin
-6.800905	Rabin-Pelossof
-6.800905	Raffaele
-6.800905	Rai
-6.800905	Ranariddh
-6.800905	Rang
-6.800905	Ranh
-6.800905	Rannarit
-6.800905	Rao
-6.800905	Ratanakiri
-6.800905	Rattanakiri
-6.800905	Rau
-6.800905	Raymond
-6.800905	Rcåm
-6.800905	Red
-6.800905	Resco
-6.800905	Research
-6.800905	Reuters
-6.800905	Rex
-6.800905	Reykjavik
-6.800905	Rhim
-6.800905	Richard
-6.800905	Rin
-6.800905	Ripas
-6.800905	Ripley
-6.800905	Riu
-6.800905	River
-6.800905	Ri«ng
-6.800905	Riêng
-6.800905	Robert
-6.800905	Ron
-6.800905	Rosamaria
-6.800905	Rossel
-6.800905	Roàng
-6.800905	Rtemp
-6.800905	Rua
-6.800905	Rubber
-6.800905	Rum
-6.800905	Rumanov
-6.800905	Rung
-6.800905	Runtin
-6.800905	Rwanda
-6.800905	Ryan
-6.800905	Ryuichiro
-6.800905	R¡c
-6.800905	R¡n
-6.800905	R¢m
-6.800905	R¤t
-6.800905	R¯n
-6.800905	R°i
-6.800905	R°ng
-6.800905	R¶
-6.800905	R¶i
-6.800905	R¸a
-6.800905	R½
-6.800905	R½m
-6.800905	RÕch
-6.800905	RÕng
-6.800905	RÕp
-6.800905	R×ng
-6.800905	Rà
-6.800905	Rác
-6.800905	Rái
-6.800905	Ráng
-6.800905	Rång
-6.800905	Rçy
-6.800905	Rên
-6.800905	Rë
-6.800905	Rí
-6.800905	Rò
-6.800905	Rô
-6.800905	Rõ
-6.800905	Rùa
-6.800905	Rút
-6.800905	S
-6.800905	S1
-6.800905	S13-14
-6.800905	S15
-6.800905	S16
-6.800905	S2
-6.800905	S3
-6.800905	S4
-6.800905	S5
-6.800905	S6
-6.800905	S7
-6.800905	S8
-6.800905	SAM
-6.800905	SAV
-6.800905	SEA
-6.800905	SG
-6.800905	SGGP
-6.800905	SGK
-6.800905	SHIMIZU
-6.800905	SIDA
-6.800905	SJC
-6.800905	SN
-6.800905	SN1
-6.800905	SN2
-6.800905	SN3
-6.800905	SN4
-6.800905	SO2
-6.800905	SOS
-6.800905	SS
-6.800905	SSEAYP
-6.800905	STD
-6.800905	STD*
-6.800905	SUMITOMO
-6.800905	SV
-6.800905	Sa
-6.800905	Sabah
-6.800905	Sacombank
-6.800905	Saddam
-6.800905	Sai
-6.800905	Saigon
-6.800905	Saigonnet
-6.800905	Saigontourist
-6.800905	Salah
-6.800905	Sam
-6.800905	Samdec
-6.800905	Samoa
-6.800905	Sampan
-6.800905	Samsung
-6.800905	Samwhan
-6.800905	San
-6.800905	Sang
-6.800905	Sao
-6.800905	Sapa
-6.800905	Sathirathai
-6.800905	Sau
-6.800905	Sea
-6.800905	Seagull
-6.800905	Seaprodex
-6.800905	Sedeco
-6.800905	Seduxen
-6.800905	Sen
-6.800905	Seri
-6.800905	Sggp
-6.800905	Sharon
-6.800905	Shimizu
-6.800905	Ship
-6.800905	Shiseido
-6.800905	Shwe
-6.800905	Siemens
-6.800905	Sieng
-6.800905	Sierra
-6.800905	Sim
-6.800905	Sin
-6.800905	Sinco
-6.800905	Singapore
-6.800905	Sinh
-6.800905	Sirajuddin
-6.800905	Siu
-6.800905	Siêm
-6.800905	So
-6.800905	Sofitel
-6.800905	Somalia
-6.800905	Sonadezi
-6.800905	Song
-6.800905	Sony
-6.800905	Soup
-6.800905	South
-6.800905	Southcorp
-6.800905	SoÕn
-6.800905	Soài
-6.800905	Soái
-6.800905	Soát
-6.800905	Spacy
-6.800905	Spark
-6.800905	Specht
-6.800905	Speed
-6.800905	Spices
-6.800905	Spyco
-6.800905	Squibb
-6.800905	Sri
-6.800905	St
-6.800905	Standar
-6.800905	Star
-6.800905	Steam
-6.800905	Steaship
-6.800905	Steve
-6.800905	Stuart
-6.800905	Stve
-6.800905	Su
-6.800905	Sugata
-6.800905	Sum
-6.800905	Sumiji
-6.800905	Sumitomo
-6.800905	Sung
-6.800905	Sutton
-6.800905	Suzuki
-6.800905	Su¤t
-6.800905	Su¯i
-6.800905	Su¯t
-6.800905	Suýt
-6.800905	Svay
-6.800905	Sverlov
-6.800905	Sverrisdottir
-6.800905	Swe
-6.800905	Sydney
-6.800905	Syed
-6.800905	S¡c
-6.800905	S¡p
-6.800905	S¤u
-6.800905	S¥m
-6.800905	S§p
-6.800905	S¨
-6.800905	S¯
-6.800905	S¶
-6.800905	S·
-6.800905	S½
-6.800905	S½n
-6.800905	S¾
-6.800905	SÐ
-6.800905	SÐ2
-6.800905	SÐ4
-6.800905	SÑ
-6.800905	SÑc
-6.800905	SÕt
-6.800905	SØ
-6.800905	SØa
-6.800905	SÛ
-6.800905	Sß
-6.800905	Sß½ng
-6.800905	Sß¾ng
-6.800905	Sà
-6.800905	Sài
-6.800905	Sàn
-6.800905	Sách
-6.800905	Sáng
-6.800905	Sáo
-6.800905	Sáu
-6.800905	Sâm
-6.800905	Sân
-6.800905	Sän
-6.800905	Sån
-6.800905	Sæa
-6.800905	Sét
-6.800905	Sê
-6.800905	Sìn
-6.800905	Sî
-6.800905	Sñ
-6.800905	Sòng
-6.800905	Sóc
-6.800905	Sóng
-6.800905	Sót
-6.800905	Sô
-6.800905	Sông
-6.800905	Sö
-6.800905	Søp
-6.800905	Søt
-6.800905	Sùng
-6.800905	Súp
-6.800905	Sû
-6.800905	Süi
-6.800905	Sþ
-6.800905	Sþt
-6.800905	T
-6.800905	T10
-6.800905	T3
-6.800905	T4
-6.800905	T5
-6.800905	T6
-6.800905	T7
-6.800905	T88
-6.800905	TA
-6.800905	TAND
-6.800905	TB-UB
-6.800905	TCBÐ
-6.800905	TCVN
-6.800905	TCÐLCL
-6.800905	TDTT
-6.800905	TFAP
-6.800905	TH
-6.800905	THAN
-6.800905	THCB
-6.800905	THCN
-6.800905	THCS
-6.800905	THKTNV
-6.800905	THPT
-6.800905	TN
-6.800905	TNCS
-6.800905	TNHH
-6.800905	TNTN
-6.800905	TNXP
-6.800905	TP
-6.800905	TPC
-6.800905	TPHCM
-6.800905	TS
-6.800905	TT
-6.800905	TT-Huª
-6.800905	TTGT
-6.800905	TTQL
-6.800905	TTQL-ÐH
-6.800905	TTXVN
-6.800905	TTYT
-6.800905	TTrGT
-6.800905	TV
-6.800905	TW
-6.800905	Ta
-6.800905	Tadeo
-6.800905	Tai
-6.800905	Taisei
-6.800905	Takehito
-6.800905	Taliban
-6.800905	Tam
-6.800905	Tanimex
-6.800905	Tao
-6.800905	Taxi
-6.800905	Tbon
-6.800905	Tbé
-6.800905	Tem
-6.800905	Tengah
-6.800905	Tenl½man
-6.800905	Terre
-6.800905	Tetra
-6.800905	Tha
-6.800905	Tham
-6.800905	Than
-6.800905	Thang
-6.800905	Thanh
-6.800905	Thao
-6.800905	Thay
-6.800905	The
-6.800905	Theo
-6.800905	Thep
-6.800905	Thi
-6.800905	Thiªt
-6.800905	Thiªu
-6.800905	Thi«n
-6.800905	Thi«u
-6.800905	Thi®n
-6.800905	Thi®ng
-6.800905	Thi®p
-6.800905	Thi®t
-6.800905	Thi®u
-6.800905	Thiêm
-6.800905	Thiên
-6.800905	Tho
-6.800905	Thoa
-6.800905	Thomas
-6.800905	Thompson
-6.800905	ThoÕi
-6.800905	Thoát
-6.800905	Thoäi
-6.800905	Thoäng
-6.800905	Thu
-6.800905	Thua
-6.800905	Thuy
-6.800905	Thuyªt
-6.800905	Thuy«n
-6.800905	Thuyên
-6.800905	Thu§n
-6.800905	Thu§t
-6.800905	Thuª
-6.800905	Thu¯c
-6.800905	Thuµt
-6.800905	ThuÏ
-6.800905	ThuÖ
-6.800905	ThuÜ
-6.800905	Thuê
-6.800905	Thuý
-6.800905	Thy
-6.800905	Th¡m
-6.800905	Th¡ng
-6.800905	Th¤t
-6.800905	Th¤y
-6.800905	Th¥m
-6.800905	Th¥n
-6.800905	Th¥y
-6.800905	Th¦m
-6.800905	Th§m
-6.800905	Th§n
-6.800905	Th§t
-6.800905	Thª
-6.800905	Th¬
-6.800905	Th¯ng
-6.800905	Th¯t
-6.800905	Th±
-6.800905	Th¶
-6.800905	Th¶i
-6.800905	Th·
-6.800905	Th¸
-6.800905	Th¸nh
-6.800905	Th¸t
-6.800905	Th½
-6.800905	Th½m
-6.800905	Th¾i
-6.800905	ThÑ
-6.800905	ThÑc
-6.800905	ThÕc
-6.800905	ThÕch
-6.800905	ThÕnh
-6.800905	Th×a
-6.800905	Thß
-6.800905	Thßa
-6.800905	Thßng
-6.800905	Thß¶ng
-6.800905	Thß·ng
-6.800905	Thß½ng
-6.800905	Thß¾c
-6.800905	Thßþng
-6.800905	Thàng
-6.800905	Thành
-6.800905	Thào
-6.800905	Thày
-6.800905	Thá
-6.800905	Thác
-6.800905	Thái
-6.800905	Thám
-6.800905	Tháng
-6.800905	Thánh
-6.800905	Tháo
-6.800905	Tháp
-6.800905	Thân
-6.800905	Thä
-6.800905	Thäm
-6.800905	Thäo
-6.800905	ThäoÄnh
-6.800905	Thång
-6.800905	Thép
-6.800905	Thêm
-6.800905	Thêu
-6.800905	Thë
-6.800905	Thì
-6.800905	Thìn
-6.800905	Thí
-6.800905	Thía
-6.800905	Thích
-6.800905	Thít
-6.800905	Thïnh
-6.800905	Thñc
-6.800905	Thôi
-6.800905	Thôn
-6.800905	Thông
-6.800905	Thöa
-6.800905	Th÷
-6.800905	Thø
-6.800905	Thøy
-6.800905	Thùng
-6.800905	Thùy
-6.800905	Thú
-6.800905	Thúc
-6.800905	Thúy
-6.800905	Thü
-6.800905	Thüy
-6.800905	Thþ
-6.800905	Ti
-6.800905	Tiger
-6.800905	Timor
-6.800905	Tin
-6.800905	TinViet
-6.800905	Tinh
-6.800905	Tintuc
-6.800905	Tiªn
-6.800905	Tiªng
-6.800905	Tiªp
-6.800905	Tiªt
-6.800905	Ti«m
-6.800905	Ti«n
-6.800905	Ti¬u
-6.800905	Ti®c
-6.800905	Ti®m
-6.800905	Ti®n
-6.800905	Tiêm
-6.800905	Tiên
-6.800905	Tiêu
-6.800905	Toa
-6.800905	Tokyo
-6.800905	Tom
-6.800905	Toma
-6.800905	Tong
-6.800905	Toserco
-6.800905	Tourist
-6.800905	Toà
-6.800905	Toàn
-6.800905	Toán
-6.800905	Toän
-6.800905	Toòng
-6.800905	Tr
-6.800905	Tra
-6.800905	Trade
-6.800905	Trai
-6.800905	Trang
-6.800905	TrangÄnh
-6.800905	Tranh
-6.800905	Transinco
-6.800905	Translorhd
-6.800905	Transport
-6.800905	Trao
-6.800905	Travel
-6.800905	Tre
-6.800905	Tredenicks
-6.800905	Treo
-6.800905	Tri
-6.800905	Trinh
-6.800905	Triªt
-6.800905	Tri«u
-6.800905	Tri¬n
-6.800905	Tri®u
-6.800905	Trong
-6.800905	Trung
-6.800905	Truy
-6.800905	Truy«n
-6.800905	Tr¡ng
-6.800905	Tr¥m
-6.800905	Tr¥n
-6.800905	Tr¥u
-6.800905	Tr§n
-6.800905	Tr§t
-6.800905	Tr©m
-6.800905	Tr¯ng
-6.800905	Tr°ng
-6.800905	Tr±
-6.800905	Tr²i
-6.800905	Tr¶i
-6.800905	Tr·
-6.800905	Tr¸
-6.800905	Tr¸nh
-6.800905	TrÑ
-6.800905	TrÕch
-6.800905	TrÕi
-6.800905	TrÕm
-6.800905	Tr×
-6.800905	Trßa
-6.800905	Trßng
-6.800905	Trß¶ng
-6.800905	Trß·ng
-6.800905	Trß½ng
-6.800905	Trß¾c
-6.800905	Trà
-6.800905	Tràm
-6.800905	Tràng
-6.800905	Trách
-6.800905	Trái
-6.800905	Tráng
-6.800905	Tránh
-6.800905	Trâm
-6.800905	Trân
-6.800905	Trâu
-6.800905	Trãi
-6.800905	Trä
-6.800905	Träng
-6.800905	Träo
-6.800905	Trång
-6.800905	Trên
-6.800905	Trë
-6.800905	Trì
-6.800905	Trí
-6.800905	Trích
-6.800905	Trî
-6.800905	Trñc
-6.800905	Trò
-6.800905	Trôm
-6.800905	Trông
-6.800905	Tr÷n
-6.800905	Tr÷ng
-6.800905	Trø
-6.800905	Trøc
-6.800905	Trù
-6.800905	Trùng
-6.800905	Trúc
-6.800905	Trþ
-6.800905	Tu
-6.800905	Tuanku
-6.800905	Tuar
-6.800905	Tui
-6.800905	Tum
-6.800905	Tung
-6.800905	Tuy
-6.800905	Tuyªn
-6.800905	Tuyªt
-6.800905	Tuy«n
-6.800905	Tuy¬n
-6.800905	Tuy®t
-6.800905	Tuyên
-6.800905	Tu¤n
-6.800905	Tu¥n
-6.800905	Tu®
-6.800905	Tu±i
-6.800905	TuÏ
-6.800905	Tuý
-6.800905	Ty
-6.800905	T¡c
-6.800905	T£ng
-6.800905	T¤n
-6.800905	T¤p
-6.800905	T¤t
-6.800905	T¤u
-6.800905	T¥m
-6.800905	T¥n
-6.800905	T¥ng
-6.800905	T¥u
-6.800905	T§n
-6.800905	T§p
-6.800905	Tª
-6.800905	Tªt
-6.800905	T¬
-6.800905	T®
-6.800905	T¯
-6.800905	T¯c
-6.800905	T¯i
-6.800905	T¯ng
-6.800905	T¯p
-6.800905	T¯t
-6.800905	T°n
-6.800905	T±
-6.800905	T±ng
-6.800905	Tµ
-6.800905	Tµc
-6.800905	Tµi
-6.800905	T¸ch
-6.800905	T¸nh
-6.800905	T¾i
-6.800905	T¿
-6.800905	TÑ
-6.800905	TÑc
-6.800905	TÕ
-6.800905	TÕi
-6.800905	TÕm
-6.800905	TÕn
-6.800905	TÕo
-6.800905	TÖ
-6.800905	T×
-6.800905	T×ng
-6.800905	TØ
-6.800905	TØng
-6.800905	TÜ
-6.800905	Tß
-6.800905	Tß¶ng
-6.800905	Tß·ng
-6.800905	Tß½i
-6.800905	Tß½ng
-6.800905	Tß¾c
-6.800905	Tßþng
-6.800905	Tà
-6.800905	Tài
-6.800905	Tàm
-6.800905	Tào
-6.800905	Tàu
-6.800905	Tày
-6.800905	Tá
-6.800905	Tác
-6.800905	Tách
-6.800905	Tái
-6.800905	Tám
-6.800905	Tán
-6.800905	Tánh
-6.800905	Tát
-6.800905	Tâm
-6.800905	Tân
-6.800905	Tân-VÐ2
-6.800905	Tây
-6.800905	Tä
-6.800905	Tång
-6.800905	Tè
-6.800905	Tép
-6.800905	Tê
-6.800905	Të
-6.800905	Tëh
-6.800905	Tìm
-6.800905	Tình
-6.800905	Tích
-6.800905	Tín
-6.800905	Tính
-6.800905	Tînh
-6.800905	Tïnh
-6.800905	Tñ
-6.800905	Tñu
-6.800905	Tò
-6.800905	Tòa
-6.800905	Tòng
-6.800905	Tóc
-6.800905	Tô
-6.800905	Tôi
-6.800905	Tôm
-6.800905	Tôn
-6.800905	Tông
-6.800905	Töi
-6.800905	Tøi
-6.800905	Tøt
-6.800905	Tùng
-6.800905	Tú
-6.800905	Túc
-6.800905	Túy
-6.800905	Tü
-6.800905	Tý
-6.800905	U
-6.800905	U10
-6.800905	UB
-6.800905	UBBVCSTE
-6.800905	UBCKNN
-6.800905	UBND
-6.800905	UBNDTP
-6.800905	UBTDTT
-6.800905	UH1A
-6.800905	UNDP
-6.800905	UNESCO
-6.800905	UNFPA
-6.800905	UNHCR
-6.800905	UNICEF
-6.800905	UNIVERSE
-6.800905	UNV
-6.800905	USD
-6.800905	Ui
-6.800905	Ukraina
-6.800905	Um
-6.800905	Understanding
-6.800905	Ung
-6.800905	Uniraya
-6.800905	Uy
-6.800905	Uyen
-6.800905	Uynh
-6.800905	Uyên
-6.800905	Uzebekistan
-6.800905	U¤t
-6.800905	U¦n
-6.800905	U¯ng
-6.800905	UÖ
-6.800905	Uông
-6.800905	V
-6.800905	V26
-6.800905	VASEP
-6.800905	VBCC
-6.800905	VCCI
-6.800905	VCD
-6.800905	VDC
-6.800905	VET
-6.800905	VH
-6.800905	VH-TT
-6.800905	VHTT
-6.800905	VI
-6.800905	VIETEL
-6.800905	VIFOTEC
-6.800905	VII
-6.800905	VIII
-6.800905	VINASTAS
-6.800905	VIP
-6.800905	VISAL
-6.800905	VITC
-6.800905	VKS
-6.800905	VKSND
-6.800905	VMS
-6.800905	VN
-6.800905	VN-Index
-6.800905	VND
-6.800905	VNOSMP
-6.800905	VNPT
-6.800905	VOIP
-6.800905	VOSA
-6.800905	VOV
-6.800905	VP
-6.800905	VP06
-6.800905	VPCP-NN
-6.800905	VSC
-6.800905	VTV
-6.800905	VTV1
-6.800905	VTV3
-6.800905	VVA
-6.800905	Vai
-6.800905	Valgerdur
-6.800905	Van
-6.800905	Vang
-6.800905	Vat
-6.800905	Vedan
-6.800905	Ven
-6.800905	Venice
-6.800905	Ver
-6.800905	Verhofstadt
-6.800905	Vermeer
-6.800905	Vi
-6.800905	Victor
-6.800905	Victoria
-6.800905	Viec
-6.800905	VietNews
-6.800905	Vietbao
-6.800905	Vietnam
-6.800905	Vietravel
-6.800905	Vietsovpetro
-6.800905	View
-6.800905	Viktor
-6.800905	Vilayvanh
-6.800905	Vin
-6.800905	Vina
-6.800905	Vinaconex
-6.800905	Vinaphone
-6.800905	Vinashin
-6.800905	Vinh
-6.800905	Visan
-6.800905	Vissan
-6.800905	VitMetal
-6.800905	Viªt
-6.800905	Vi­n
-6.800905	Vi®c
-6.800905	Vi®n
-6.800905	Vi®t
-6.800905	Viên
-6.800905	Viêng
-6.800905	Vladimir
-6.800905	VnExpress
-6.800905	Voi
-6.800905	Von
-6.800905	Voronin
-6.800905	Vu
-6.800905	Vua
-6.800905	Vui
-6.800905	V¡ng
-6.800905	V¤n
-6.800905	V¤p
-6.800905	V¥n
-6.800905	V¥ng
-6.800905	V§n
-6.800905	V§t
-6.800905	V§y
-6.800905	Vªt
-6.800905	V«
-6.800905	V®
-6.800905	V¯n
-6.800905	V°
-6.800905	V·
-6.800905	V¸
-6.800905	V¸nh
-6.800905	V¾i
-6.800905	VÕc
-6.800905	VÕn
-6.800905	VÕt
-6.800905	V×
-6.800905	V×a
-6.800905	VÞ
-6.800905	Vß¶n
-6.800905	Vß½ng
-6.800905	Vß¾ng
-6.800905	Vßþng
-6.800905	Và
-6.800905	Vài
-6.800905	Vàm
-6.800905	Vàng
-6.800905	Vành
-6.800905	Vào
-6.800905	Vác
-6.800905	Ván
-6.800905	Vân
-6.800905	Vâng
-6.800905	Vä
-6.800905	Väi
-6.800905	Vån
-6.800905	Vçn
-6.800905	Vé
-6.800905	Vì
-6.800905	Ví
-6.800905	Vî
-6.800905	Vînh
-6.800905	Vïa
-6.800905	Vïnh
-6.800905	Vñc
-6.800905	Vòm
-6.800905	Vòng
-6.800905	Vôi
-6.800905	Võ
-6.800905	Vö
-6.800905	V÷ng
-6.800905	Vø
-6.800905	Vùng
-6.800905	Vû
-6.800905	Vûng
-6.800905	Vþ
-6.800905	W
-6.800905	WB
-6.800905	WHO
-6.800905	WTO
-6.800905	WWF
-6.800905	Walker
-6.800905	Wang
-6.800905	War
-6.800905	Washington
-6.800905	Water
-6.800905	Wave
-6.800905	Willis
-6.800905	Winconsin
-6.800905	Window
-6.800905	Wing
-6.800905	Won
-6.800905	Word
-6.800905	World
-6.800905	WorldVina
-6.800905	Wulff
-6.800905	X
-6.800905	X-quang
-6.800905	XBM
-6.800905	XD
-6.800905	XH
-6.800905	XHCN
-6.800905	XI
-6.800905	XIII
-6.800905	XIX
-6.800905	XSKT
-6.800905	XVIII-XIX
-6.800905	XX
-6.800905	Xa
-6.800905	Xanh
-6.800905	Xe
-6.800905	Xem
-6.800905	Xi
-6.800905	Xin
-6.800905	Xinh
-6.800905	Xoay
-6.800905	Xoài
-6.800905	Xoá
-6.800905	Xoè
-6.800905	Xu
-6.800905	Xung
-6.800905	Xuyªn
-6.800905	Xuy«n
-6.800905	Xuyên
-6.800905	Xu¤t
-6.800905	Xu°ng
-6.800905	Xuân
-6.800905	Xuân-B¶
-6.800905	Xª
-6.800905	Xªp
-6.800905	X½ðång
-6.800905	XÑ
-6.800905	XÕ
-6.800905	XØ
-6.800905	Xßa
-6.800905	Xß·ng
-6.800905	Xß½ng
-6.800905	Xà
-6.800905	Xá
-6.800905	Xác
-6.800905	Xáng
-6.800905	Xát
-6.800905	Xâm
-6.800905	Xây
-6.800905	Xã
-6.800905	Xä
-6.800905	Xång
-6.800905	Xén
-6.800905	Xét
-6.800905	Xê-út
-6.800905	Xêút
-6.800905	Xí
-6.800905	Xích
-6.800905	Xính
-6.800905	Xóa
-6.800905	Xóm
-6.800905	Xô
-6.800905	Y
-6.800905	Y2
-6.800905	Y3
-6.800905	Y4
-6.800905	YUKM
-6.800905	Yali
-6.800905	Yaly
-6.800905	Yamazaki
-6.800905	Yang
-6.800905	Ybl¯c
-6.800905	Yitzhak
-6.800905	Yok
-6.800905	Yokdon
-6.800905	Yoong
-6.800905	York
-6.800905	Youth
-6.800905	Yup
-6.800905	Yªn
-6.800905	Yªu
-6.800905	Y¬ng
-6.800905	Y¬u
-6.800905	Yêm
-6.800905	Yên
-6.800905	YênÄnh
-6.800905	Yêu
-6.800905	Z
-6.800905	ZANU-PF
-6.800905	Zahir
-6.800905	Zambia
-6.800905	Zealand
-6.800905	Zhang
-6.800905	Zimbabwe
-6.800905	Zuoji
-6.800905	Zurich
-6.800905	Zymplex
-6.800905	Zß
-6.800905	[Tr·
-6.800905	[tr·
-3.857609	a	-0.4130097
-6.800905	a-b
-6.800905	a-min
-6.800905	a-zinh
-6.800905	a1
-6.800905	a17
-6.800905	a2
-6.800905	a3
-6.800905	a4
-6.800905	a5
-6.800905	a6
-6.800905	a83
-6.800905	a92
-6.800905	a_bàng
-6.800905	a_di_ðà_ph§t
-6.800905	a_dua
-6.800905	a_giao
-6.800905	a_ha
-6.800905	a_hoàn
-6.800905	a_huyªt
-6.800905	a_la_hán
-6.800905	a_lu-min
-6.800905	a_men
-6.800905	a_mi-ång
-6.800905	a_mi-ðan
-6.800905	a_m¸
-6.800905	a_míp
-6.800905	a_mô-ni-ác
-6.800905	a_ni-mô-a-xít
-6.800905	a_n¯t
-6.800905	a_nô-phen
-6.800905	a_pa-tít
-6.800905	a_phiªn
-6.800905	a_phiªn_tr¡ng
-6.800905	a_phø
-6.800905	a_pác-thai
-6.800905	a_trô-pin
-6.800905	a_tòng
-6.800905	a_tùng
-6.800905	a_vào
-6.800905	a_xen
-6.800905	a_xphan
-6.800905	a_xpi-rin
-6.800905	a_xê-ti-len
-6.800905	a_xê-ton
-6.800905	a_xít
-6.800905	a_xít_a-min
-6.800905	aapp
-6.800905	aashto
-6.800905	abidjan
-6.800905	ac
-6.800905	accordeon
-6.800905	accra
-6.800905	acer
-6.800905	acetylen
-6.800905	acid
-6.800905	acid_amin
-6.800905	acid_axetic
-6.800905	acid_béo
-6.800905	acid_carbonic
-6.800905	acid_chlorhydric
-6.800905	acid_nitric
-6.800905	acid_sunfuric
-6.800905	acmonica
-6.800905	acquy
-6.800905	acre
-6.800905	acten
-6.800905	acten_nông_nghi®p
-6.800905	adam
-6.800905	adb
-6.800905	adn
-6.800905	adrenalin
-6.800905	adriatic
-6.800905	advertising
-6.800905	ae
-6.800905	afganistan
-6.800905	afghani
-6.800905	afghanistan
-6.800905	afta
-6.800905	ag
-6.800905	ah
-6.800905	ah1
-3.594881	ai	-0.2949858
-6.800905	ai_ai
-6.800905	ai_bäo
-6.800905	ai_c§p
-5.970139	ai_dè	-0.1664093
-6.800905	ai_lao
-5.970139	ai_lÕi	-0.1676759
-6.800905	ai_làm_n¤y_ch¸u
-5.970139	ai_ng¶	-0.1671306
-5.970139	ai_n¤y	-0.1683672
-6.800905	ai_nói_làm_sao_tào_hao_làm_v§y
-5.970139	ai_oán	-0.168368
-6.800905	ai_quan
-6.800905	ai_ðiªu
-6.800905	ai_ð¶i
-6.800905	aia
-6.800905	aids
-6.800905	aipo
-6.800905	air
-6.800905	airlines
-6.800905	ajun
-6.800905	akiyoshi
-5.970139	al	-0.08952609
-6.800905	album
-6.800905	albumin
-6.800905	alcaloid
-6.800905	aldehyd
-6.800905	algorithm
-6.800905	all
-6.800905	almanac
-4.965949	alpha	-0.1627307
-6.800905	alumin
-5.970139	alô	-0.1683654
-4.7441	am	-0.1615314
-6.800905	am-pe
-6.800905	am-pli
-5.539712	am_hi¬u	-0.1679941
-6.800905	am_luy®n
-6.800905	am_pe
-6.800905	am_pli
-6.800905	am_thanh_cänh_v¡ng
-6.800905	am_thi«n
-6.800905	am_tß¶ng
-6.800905	am_tñ
-6.800905	aman
-6.800905	amata
-6.800905	amato
-6.800905	amen
-6.800905	amian
-6.800905	amiant
-6.800905	amib
-6.800905	amin
-6.800905	aminoacid
-6.800905	aminoaxit
-6.800905	amip
-6.800905	amiða
-6.800905	amiðan
-6.800905	ammoniac
-6.800905	amoniac
-6.800905	amonium
-6.800905	amore
-6.800905	ampe
-6.800905	ampe_kª
-6.800905	ampere
-6.800905	ampere_kª
-6.800905	ampli
-6.800905	amygdal
-3.02394	an	-0.6957602
-6.800905	an-bom
-6.800905	an-go-rit
-6.800905	an_bom
-6.800905	an_bu-min
-6.800905	an_b¥n
-6.800905	an_bài
-5.970139	an_cß	-0.1643116
-6.800905	an_cß_lÕc_nghi®p
-6.800905	an_d§t
-6.800905	an_dßÞng
-6.800905	an_dßÞng_ðß¶ng
-6.800905	an_dân
-6.800905	an_gi¤c
-6.800905	an_go-rit
-6.800905	an_hß·ng
-5.449334	an_häo	-0.163352
-6.800905	an_khang
-4.7441	an_lÕc	-0.08732677
-6.800905	an_lòng
-6.800905	an_ma-nac
-6.800905	an_m®nh
-6.800905	an_nghï
-6.800905	an_nguy
-6.800905	an_nh§t
-6.800905	an_nhàn
-3.918025	an_ninh	-0.4102971
-6.800905	an_ph§n
-6.800905	an_ph§n_thü_thß¶ng
-4.899002	an_sinh	-0.2903286
-6.800905	an_thai
-6.800905	an_th¥n
-6.800905	an_thân
-6.800905	an_ti-mon
-6.800905	an_ti-pi-rin
-6.800905	an_toÕ
-3.172391	an_toàn	-0.7307667
-6.800905	an_toàn_khu
-4.568008	an_toàn_lao_ðµng	-0.21772
-6.800905	an_trí
-6.800905	an_t¸nh
-6.800905	an_tÑc
-6.800905	an_tÑc_hß½ng
-5.539712	an_táng	-0.1658458
-5.246233	an_tâm	-0.3432943
-6.800905	an_uÖ
-6.800905	an_v¸
-6.800905	an_ðe-hit
-6.800905	an_ð¸nh
-5.970139	an_üi	-0.1682362
-6.800905	ana
-6.800905	anbom
-6.800905	anbumin
-6.800905	ancaloit
-6.800905	andrreotta
-6.800905	ang
-6.800905	ang_áng
-6.800905	angchawala
-3.158639	anh	-0.3077763
-6.800905	anh_ch¸
-5.246233	anh_ch¸_em	-0.1645494
-5.970139	anh_chàng	-0.1683497
-4.702707	anh_dûng	-0.07322763
-4.630157	anh_em	-0.1107306
-6.800905	anh_em_c÷c_chèo
-6.800905	anh_em_thúc_bá
-6.800905	anh_hoa
-6.800905	anh_h°n
-6.800905	anh_hào
-4.346159	anh_hùng	-0.4061273
-6.800905	anh_hùng_ca
-6.800905	anh_hùng_chü_nghîa
-6.800905	anh_hùng_cá_nhân
-6.800905	anh_hùng_r½m
-6.800905	anh_ki®t
-6.800905	anh_linh
-5.539712	anh_minh	-0.08952609
-6.800905	anh_nhi
-6.800905	anh_nhu®
-6.800905	anh_nuôi
-6.800905	anh_quân
-6.800905	anh_ruµt
-6.800905	anh_r¬
-5.539712	anh_thß
-6.800905	anh_trai
-4.7441	anh_tu¤n	-0.2286271
-6.800905	anh_tài
-6.800905	anh_tú
-6.800905	anh_túc
-6.800905	anh_túc_xác
-5.539712	anh_vû	-0.1681892
-6.800905	anh_ách
-6.800905	anh_ánh
-5.970139	anh_ðào	-0.1676712
-6.800905	anmanac
-6.800905	anod
-6.800905	anofen
-6.800905	anophel
-6.800905	anot
-6.800905	anpha
-6.800905	antananarivo
-6.800905	anten
-6.800905	antenna
-6.800905	anthracit
-6.800905	antimon
-6.800905	antipirin
-6.800905	antipytin
-6.800905	anðehit
-4.312736	ao	-0.1867162
-6.800905	ao_chuôm
-4.597971	ao_h°	-0.1935086
-6.800905	ao_tù
-6.800905	ao_x¯ng
-6.800905	ao_ß¾c
-6.800905	apacthai
-6.800905	apatit
-6.800905	apatrheid
-6.800905	apave
-6.800905	apec
-6.800905	apex
-6.800905	apphe
-6.800905	apphich
-6.800905	aptomat
-6.800905	apxe
-6.800905	arafat
-6.800905	arbit
-6.800905	arbit_h¯i_ðoái
-6.800905	ariel
-6.800905	armonica
-6.800905	arnold
-6.800905	arsenic
-6.800905	arten
-6.800905	arten_nông_nghi®p
-6.800905	as
-6.800905	as-pi-rin
-6.800905	asean
-6.800905	asem
-6.800905	asem-v
-6.800905	asen
-6.800905	asenic
-6.800905	asia
-6.800905	asia-invest
-6.800905	asian
-6.800905	asphalt
-5.539712	asphan	-0.3729628
-6.800905	aspirin
-6.800905	atlas
-6.800905	atlat
-6.800905	atmosphe
-6.800905	atmotphe
-6.800905	atr
-6.800905	atropin
-6.800905	ats
-6.800905	atép
-5.970139	au
-6.800905	austral
-6.800905	australia
-6.800905	automat
-6.800905	avenis
-6.800905	axetic
-6.800905	axetilen
-6.800905	axeton
-4.965949	axit	-0.07932844
-6.800905	axit_amin
-6.800905	axit_axetic
-6.800905	axit_cacbonic
-6.800905	axit_clohidric
-6.800905	axit_nitric
-5.970139	axit_sunfuric	-0.08952609
-6.800905	axits
-6.800905	axít
-6.800905	b
-6.800905	b1
-6.800905	b10
-6.800905	b12
-6.800905	b14
-6.800905	b4
-6.800905	b6
-6.800905	b7
-3.289255	ba	-0.3295422
-6.800905	ba-dan
-6.800905	ba-d½
-6.800905	ba-ke-lit
-5.970139	ba_ba	-0.1679017
-6.800905	ba_b«_b¯n_bên
-5.539712	ba_b¸	-0.1683171
-6.800905	ba_bäy
-6.800905	ba_chân_b¯n_cÆng
-6.800905	ba_chìm_bäy_n±i
-6.800905	ba_chï
-6.800905	ba_c÷c_ba_ð°ng
-6.800905	ba_cùng
-6.800905	ba_dan
-6.800905	ba_do-ca
-6.800905	ba_d½
-6.800905	ba_gai
-6.800905	ba_giång
-6.800905	ba_gÕc
-4.568008	ba_gác	-0.2089332
-6.800905	ba_hoa
-6.800905	ba_hoa_chích_choè
-6.800905	ba_hoa_thiên_ð¸a
-6.800905	ba_hoa_xích_ðª
-6.800905	ba_h°n_bäy_vía
-6.800905	ba_h°n_chín_vía
-6.800905	ba_ke-lit
-6.800905	ba_khía
-6.800905	ba_không
-6.800905	ba_kích
-6.800905	ba_l½n
-6.800905	ba_lá
-6.800905	ba_láp
-6.800905	ba_lát
-6.800905	ba_lång_nhång
-5.970139	ba_lê	-0.1682808
-5.970139	ba_lô	-0.163352
-6.800905	ba_lô_con_cóc
-6.800905	ba_lông
-6.800905	ba_m£t_mµt_l¶i
-6.800905	ba_mß½i_tªt
-5.14204	ba_má	-0.1669751
-6.800905	ba_máu_sáu_c½n
-6.800905	ba_mûi_giáp_công
-6.800905	ba_phäi
-6.800905	ba_que
-6.800905	ba_quân
-6.800905	ba_ren
-6.800905	ba_r÷i
-6.800905	ba_sinh
-6.800905	ba_soi
-6.800905	ba_ta
-6.800905	ba_ti-nê
-6.800905	ba_toong
-6.800905	ba_trång
-6.800905	ba_trþn
-6.800905	ba_trþn_ba_trÕo
-6.800905	ba_tui
-6.800905	ba_tê
-6.800905	ba_vÕ
-6.800905	ba_xÕo
-6.800905	ba_ð¥u_sáu_tay
-6.800905	ba_ð§u
-6.800905	ba_ðào
-6.800905	badôca
-6.800905	baghdad
-6.800905	bahrain
-6.800905	baht
-6.800905	bai
-6.800905	bai_bäi
-6.800905	bakelit
-6.800905	balat
-6.800905	balboa
-6.800905	ballad
-6.800905	ballast
-6.800905	balê
-6.800905	balô
-6.800905	balông
-2.841553	ban	-0.9170823
-5.970139	ban_b®
-5.970139	ban_b¯
-4.84101	ban_bí_thß	-0.9924349
-6.800905	ban_chi«u
-6.800905	ban_cho
-4.120851	ban_ch¤p_hành	-0.6459763
-6.800905	ban_ch¤p_uÖ
-6.800905	ban_c¤p
-6.800905	ban_công
-4.664918	ban_giám_hi®u	-0.1823027
-3.661314	ban_hành	-0.4722895
-6.800905	ban_khen
-6.800905	ban_mai
-6.800905	ban_miêu
-4.252738	ban_ngày	-0.1049871
-6.800905	ban_ngày_ban_m£t
-5.539712	ban_nhÕc	-0.08952609
-6.800905	ban_nãy
-6.800905	ban_phát
-6.800905	ban_s½
-6.800905	ban_thß·ng
-6.800905	ban_trßa
-6.800905	ban_t£ng
-6.800905	ban_t¯i
-6.800905	ban_½n
-6.800905	ban_ân
-3.825022	ban_ð¥u	-0.3002929
-4.513651	ban_ðêm	-0.1593437
-6.800905	ban_ðö
-6.800905	bandar
-5.14204	bang	-0.4390484
-6.800905	bang_bi®n
-6.800905	bang_giao
-6.800905	bang_tá
-6.800905	bangkok
-6.800905	bangladesh
-6.800905	banh
-3.358493	bao	-0.844152
-6.800905	bao_biªm
-5.970139	bao_bi®n	-0.1655386
-6.800905	bao_b¯
-4.488827	bao_bì	-0.1535238
-5.539712	bao_b÷c	-0.37285
-4.84101	bao_cao_su	-0.2184328
-4.899002	bao_che	-0.4509124
-6.800905	bao_chiªm
-5.449334	bao_c¤p	-0.1673982
-6.800905	bao_dai
-6.800905	bao_dong
-6.800905	bao_dung
-4.053904	bao_gi¶	-0.1846102
-4.120851	bao_g°m	-0.5116781
-5.449334	bao_gói	-0.1639274
-6.800905	bao_hoa
-6.800905	bao_hàm
-6.800905	bao_la
-6.800905	bao_lan
-5.970139	bao_l½n	-0.1653392
-4.84101	bao_lâu	-0.3737437
-6.800905	bao_låm
-6.800905	bao_mua
-4.187797	bao_nhiêu	-0.09276393
-6.800905	bao_nä
-6.800905	bao_ph¤n
-5.970139	bao_phü	-0.1680137
-5.246233	bao_quanh	-0.2319593
-6.800905	bao_qui_ð¥u
-6.800905	bao_quát
-6.800905	bao_quän
-5.970139	bao_tay	-0.1683622
-5.970139	bao_th¥u	-0.08952609
-6.800905	bao_th½
-6.800905	bao_thß
-5.449334	bao_trùm	-0.166333
-6.800905	bao_t¶i
-6.800905	bao_tØ
-6.800905	bao_tßþng
-5.246233	bao_täi	-0.08926035
-4.965949	bao_vây	-0.1638775
-6.800905	bao_vây_kinh_tª
-6.800905	bao_xa
-6.800905	bao_ð°ng
-4.664918	bar	-0.5634875
-6.800905	barak
-6.800905	baren
-6.800905	barrel
-6.800905	basa
-6.800905	basalt
-6.800905	base
-6.800905	bata
-6.800905	batinê
-6.800905	batket
-6.800905	batoa
-6.800905	batoong
-6.800905	batrui
-6.800905	batui
-6.800905	batê
-4.346159	bay	-0.3067996
-6.800905	bay_biªn
-6.800905	bay_b±ng
-6.800905	bay_bß¾m
-5.970139	bay_h½i
-6.800905	bay_lßþn
-6.800905	bay_màu
-6.800905	bay_mùi
-6.800905	bay_nhäy
-6.800905	bazan
-6.800905	bazooka
-6.800905	baz½
-6.800905	bbc
-6.800905	bc2
-5.539712	bch	-0.3728782
-6.800905	bct
-5.539712	be	-0.3726048
-6.800905	be_be
-6.800905	be_bé
-6.800905	be_bét
-6.800905	becgiê
-6.800905	becjê
-6.800905	bee
-6.800905	beer
-6.800905	befeo
-6.800905	beffeo
-6.800905	begawan
-6.800905	believe
-6.800905	bem
-6.800905	ben
-6.800905	ben-zen
-6.800905	beng
-6.800905	bengt
-6.800905	benjamin
-6.800905	benz
-6.800905	benzen
-6.800905	beo
-6.800905	beo_béo
-6.800905	bertrand
-6.800905	beta
-6.800905	bhtn
-6.800905	bhxh
-6.800905	bhyt
-5.970139	bi	-0.08952609
-5.970139	bi-a
-6.800905	bi_a
-6.800905	bi_ai
-6.800905	bi_ba_bi_bô
-6.800905	bi_bô
-6.800905	bi_ca
-6.800905	bi_chí
-6.800905	bi_cäm
-6.800905	bi_hoan
-6.800905	bi_hài_k¸ch
-6.800905	bi_hùng
-6.800905	bi_khúc
-6.800905	bi_k¸ch
-6.800905	bi_kí
-6.800905	bi_luÜ
-6.800905	bi_quan
-6.800905	bi_thiªt
-6.800905	bi_thß½ng
-6.800905	bi_thäm
-6.800905	bi_tráng
-5.970139	bi_ðát	-0.1679855
-6.800905	bi_ðông
-4.329126	bia	-0.5673811
-6.800905	bia_h½i
-6.800905	bia_mi®ng
-6.800905	bia_mµ
-6.800905	bia_ðÞ_ðÕn
-6.800905	bian
-6.800905	bibica
-6.800905	bin
-6.800905	bing
-6.800905	binh
-6.800905	binh_biªn
-6.800905	binh_b¸
-6.800905	binh_chª
-6.800905	binh_chüng
-6.800905	binh_c½
-6.800905	binh_cách
-6.800905	binh_công_xß·ng
-6.800905	binh_d¸ch
-6.800905	binh_gia
-6.800905	binh_gi¾i
-6.800905	binh_giáp
-6.800905	binh_hoä
-6.800905	binh_kh¯
-6.800905	binh_khí
-6.800905	binh_lØa
-6.800905	binh_lß½ng
-6.800905	binh_lßþc
-6.800905	binh_lính
-6.800905	binh_lñc
-6.800905	binh_mã
-6.800905	binh_nghi®p
-6.800905	binh_ngû
-6.800905	binh_nhu
-6.800905	binh_nhung
-6.800905	binh_nh¤t
-6.800905	binh_nhì
-6.800905	binh_pháp
-6.800905	binh_phí
-6.800905	binh_phøc
-6.800905	binh_quy«n
-6.800905	binh_sî
-6.800905	binh_thuy«n
-6.800905	binh_thß
-6.800905	binh_trÕm
-6.800905	binh_tình
-6.800905	binh_uy
-6.800905	binh_v§n
-6.800905	binh_vñc
-6.800905	binh_ðao
-6.800905	binh_ðoàn
-6.800905	binh_ðµi
-6.800905	binðinh
-6.800905	biphenyl
-6.800905	biptêt
-6.800905	birdlife
-6.800905	birr
-5.970139	bis	-0.1681375
-6.800905	biseptol
-6.800905	bismut
-6.800905	bismuth
-6.800905	bitcôt
-6.800905	bitum
-6.800905	biªc
-6.800905	biªm
-6.800905	biªm_hoÕ
-4.539979	biªn	-0.1969244
-5.970139	biªn_báo	-0.1680521
-5.449334	biªn_chuy¬n	-0.1647034
-5.449334	biªn_ch¤t	-0.1678389
-6.800905	biªn_chª
-5.539712	biªn_chÑng	-0.1670858
-6.800905	biªn_c¯
-6.800905	biªn_cách
-6.800905	biªn_cäi
-6.800905	biªn_di­n
-6.800905	biªn_d¸
-4.789857	biªn_dÕng	-0.1608352
-6.800905	biªn_hoá
-6.800905	biªn_hình
-6.800905	biªn_loÕn
-4.899002	biªn_m¤t	-0.1665689
-6.800905	biªn_s¡c
-6.800905	biªn_s¯
-6.800905	biªn_thiên
-4.899002	biªn_thª	-0.13562
-6.800905	biªn_thª_tñ_ngçu
-6.800905	biªn_th¬
-4.664918	biªn_thành	-0.1187879
-6.800905	biªn_thái
-6.800905	biªn_tr·
-6.800905	biªn_t¤u
-6.800905	biªn_t¯
-6.800905	biªn_t¯c
-5.14204	biªn_tß¾ng	-0.2542349
-6.800905	biªn_tính
-5.970139	biªn_áp
-6.800905	biªn_âm
-6.800905	biªn_äo
-6.800905	biªn_ði®u
-4.539979	biªn_ð±i	-0.5269894
-4.789857	biªn_ðµng	-0.1575467
-6.800905	biªng
-6.800905	biªng_nhác
-2.689487	biªt	-0.2388638
-5.14204	biªt_bao	-0.1674001
-6.800905	biªt_bao_nhiêu
-6.800905	biªt_ch×ng_nào
-6.800905	biªt_m¤y
-6.800905	biªt_ngß¶i_biªt_cüa
-6.800905	biªt_tay
-6.800905	biªt_thân
-6.800905	biªt_thóp
-6.800905	biªt_töng
-6.800905	biªt_töng_tòng_tong
-5.14204	biªt_½n	-0.1750173
-5.539712	biªt_ði«u	-0.1633021
-6.800905	biªt_ðâu
-6.800905	biªt_ðâu_ch×ng
-5.970139	biªt_ðâu_ð¤y	-0.1656056
-5.449334	biªu	-0.1649828
-6.800905	biªu_xén
-5.970139	bi«n
-5.970139	bi«n_bi®t	-0.1671243
-6.800905	bi«n_ngçu
-6.800905	bi«n_th¬
-6.800905	bi«n_vån
-6.800905	bi«u
-3.388074	bi¬n	-0.3561743
-3.454065	bi¬n_báo	-1.738244
-6.800905	bi¬n_cä
-6.800905	bi¬n_l§n
-6.800905	bi¬n_ng¡m
-4.346159	bi¬n_s¯	-0.2175336
-6.800905	bi¬n_thü
-5.14204	bi¬u	-0.08951106
-6.800905	bi¬u_bì
-6.800905	bi¬u_cß¾c
-6.800905	bi¬u_cäm
-4.281702	bi¬u_di­n	-0.3129497
-4.965949	bi¬u_dß½ng	-0.1379175
-6.800905	bi¬u_giá
-4.346159	bi¬u_hi®n	-0.1672108
-6.800905	bi¬u_kiªn
-6.800905	bi¬u_lµ
-5.970139	bi¬u_mçu
-6.800905	bi¬u_nghîa
-5.246233	bi¬u_ngæ	-0.1683356
-4.789857	bi¬u_quyªt	-0.1375086
-5.970139	bi¬u_th¸	-0.1683583
-6.800905	bi¬u_thÑc
-5.449334	bi¬u_trßng	-0.1651665
-5.246233	bi¬u_tßþng	-0.0837724
-5.449334	bi¬u_tình	-0.1656592
-6.800905	bi¬u_v§t
-6.800905	bi¬u_yªt
-5.246233	bi¬u_ð°	-0.2382422
-6.800905	bi¬u_ð°ng_tình
-6.800905	bi¬u_ðÕt
-5.970139	bi®n	-0.1682871
-6.800905	bi®n_bi®t
-6.800905	bi®n_bÕch
-6.800905	bi®n_bác
-6.800905	bi®n_chÑng
-6.800905	bi®n_chÑng_pháp
-5.970139	bi®n_hµ	-0.1655386
-6.800905	bi®n_lu§n
-6.800905	bi®n_lí
-6.800905	bi®n_minh
-3.367523	bi®n_pháp	-0.3203305
-5.970139	bi®t	-0.1680176
-5.539712	bi®t_danh	-0.1677982
-6.800905	bi®t_dßþc
-6.800905	bi®t_giam
-6.800905	bi®t_hi®u
-6.800905	bi®t_khu
-6.800905	bi®t_kích
-6.800905	bi®t_li
-5.449334	bi®t_l§p	-0.1638309
-5.970139	bi®t_l®
-6.800905	bi®t_mù
-6.800905	bi®t_ngæ
-6.800905	bi®t_phái
-6.800905	bi®t_s¯
-4.513651	bi®t_thñ	-0.275146
-6.800905	bi®t_t¸ch
-6.800905	bi®t_tài
-5.970139	bi®t_tåm
-6.800905	bi®t_tåm_bi®t_tích
-6.800905	bi®t_tích
-6.800905	bi®t_vô_âm_tín
-6.800905	bi®t_xÑ
-6.800905	bi®t_ðµi
-6.800905	bi®t_ðµng
-6.800905	bi®t_ðµng_quân
-6.800905	bi®t_ðµng_ðµi
-6.800905	bi®t_ðãi
-3.650678	biên	-0.8301065
-3.951708	biên_bän	-0.3391054
-4.312736	biên_chª	-0.25638
-6.800905	biên_chép
-6.800905	biên_cß½ng
-6.800905	biên_cänh
-6.800905	biên_d¸ch
-6.800905	biên_dÕng
-3.640296	biên_gi¾i	-0.519927
-6.800905	biên_khu
-4.899002	biên_lai	-0.1654086
-6.800905	biên_nh§n
-6.800905	biên_niên
-6.800905	biên_niên_sØ
-4.42188	biên_phòng	-0.3186677
-5.539712	biên_soÕn	-0.08943595
-6.800905	biên_thuÏ
-5.14204	biên_t§p	-0.08501291
-6.800905	biên_t§p_viên
-6.800905	biên_uÖ
-6.800905	biên_äi
-5.970139	biên_ðµ	-0.168368
-6.800905	biên_ðµi
-6.800905	biên_ðÕo
-6.800905	biêng
-6.800905	biêng_biªc
-6.800905	black
-6.800905	bloc
-6.800905	blocquaux
-6.800905	blu
-6.800905	blu_dông
-6.800905	bludông
-6.800905	blue
-6.800905	bl¯c
-6.800905	blà
-6.800905	bn
-6.800905	bnn-tccb
-6.800905	bo
-6.800905	bo-nit
-6.800905	bo-nát
-6.800905	bo_bo
-6.800905	bo_bíu
-6.800905	bo_siªt
-6.800905	boa
-6.800905	bobo
-6.800905	bod
-6.800905	bodega
-6.800905	boeing
-6.800905	bolivar
-6.800905	boliviano
-4.175898	bom	-0.1795846
-6.800905	bom_ba_càng
-6.800905	bom_bay
-5.246233	bom_bi	-0.1680537
-6.800905	bom_bß½m_bß¾m
-6.800905	bom_bê
-6.800905	bom_chìm
-6.800905	bom_h
-6.800905	bom_hoá_h÷c
-6.800905	bom_khinh_khí
-6.800905	bom_lân_tinh
-6.800905	bom_nguyên_tØ
-6.800905	bom_nhi®t_hÕch
-6.800905	bom_n±_ch§m
-6.800905	bom_phóng
-6.800905	bom_thß
-6.800905	bom_t×_trß¶ng
-6.800905	bom_vi_trùng
-6.800905	bom_xång
